{"models": [{"learning_rate": 0.1, "outputs": [{"init": 0.11450521498918534, "trees": [{"feature": [0, 0, 0, -2, -2, -2, 0, -2, -2], "threshold": [0.75, 0.6500000059604645, 0.550000011920929, -2.0, -2.0, -2.0, 0.8499999940395355, -2.0, -2.0], "children_left": [1, 2, 3, -1, -1, -1, 7, -1, -1], "children_right": [6, 5, 4, -1, -1, -1, 8, -1, -1], "value": [1.6653345369377347e-17, 0.7178518538673719, 0.5720482930541039, 0.43211485594511034, 0.7119817301630974, 1.0094589754939078, -1.076777780801058, -1.9642199710011483, -0.1893355906009674]}, {"feature": [0, 0, 0, -2, -2, -2, 0, -2, -2], "threshold": [0.75, 0.6500000059604645, 0.550000011920929, -2.0, -2.0, -2.0, 0.8499999940395355, -2.0, -2.0], "children_left": [1, 2, 3, -1, -1, -1, 7, -1, -1], "children_right": [6, 5, 4, -1, -1, -1, 8, -1, -1], "value": [1.6653345369377347e-17, 0.6460666684806348, 0.5148434637486935, 0.3889033703505993, 0.6407835571467877, 0.9085130779445172, -0.9691000027209521, -1.7677979739010334, -0.17040203154087066]}, {"feature": [0, 0, 0, -2, -2, -2, 0, -2, -2], "threshold": [0.75, 0.6500000059604645, 0.550000011920929, -2.0, -2.0, -2.0, 0.8499999940395355, -2.0, -2.0], "children_left": [1, 2, 3, -1, -1, -1, 7, -1, -1], "children_right": [6, 5, 4, -1, -1, -1, 8, -1, -1], "value": [2.2204460492503132e-17, 0.5814600016325712, 0.46335911737382407, 0.35001303331553935, 0.5767052014321088, 0.8176617701500655, -0.8721900024488567, -1.59101817651093, -0.15336182838678358]}, {"feature": [0, 0, 0, -2, -2, -2, 0, -2, -2], "threshold": [0.75, 0.6500000059604645, 0.550000011920929, -2.0, -2.0, -2.0, 0.8499999940395355, -2.0, -2.0], "children_left": [1, 2, 3, -1, -1, -1, 7, -1, -1], "children_right": [6, 5, 4, -1, -1, -1, 8, -1, -1], "value": [-3.8857805861880476e-17, 0.5233140014693141, 0.4170232056364417, 0.3150117299839854, 0.519034681288898, 0.7358955931350588, -0.7849710022039712, -1.4319163588598371, -0.13802564554810523]}, {"feature": [0, 0, 0, -2, -2, -2, 0, -2, -2], "threshold": [0.75, 0.6500000059604645, 0.550000011920929, -2.0, -2.0, -2.0, 0.8499999940395355, -2.0, -2.0], "children_left": [1, 2, 3, -1, -1, -1, 7, -1, -1], "children_right": [6, 5, 4, -1, -1, -1, 8, -1, -1], "value": [-4.4408920985006264e-17, 0.4709826013223826, 0.3753208850727975, 0.28351055698558686, 0.46713121316000816, 0.662306033821553, -0.7064739019835741, -1.2887247229738534, -0.12422308099329471]}, {"feature": [0, 0, 0, -2, -2, -2, 0, -2, -2], "threshold": [0.75, 0.6500000059604645, 0.550000011920929, -2.0, -2.0, -2.0, 0.8499999940395355, -2.0, -2.0], "children_left": [1, 2, 3, -1, -1, -1, 7, -1, -1], "children_right": [6, 5, 4, -1, -1, -1, 8, -1, -1], "value": [3.053113317719181e-17, 0.42388434119014445, 0.33778879656551775, 0.2551595012870282, 0.42041809184400736, 0.5960754304393977, -0.6358265117852165, -1.159852250676468, -0.11180077289396524]}, {"feature": [0, 0, 0, -2, -2, -2, 0, -2, -2], "threshold": [0.75, 0.6500000059604645, 0.550000011920929, -2.0, -2.0, -2.0, 0.8499999940395355, -2.0, -2.0], "children_left": [1, 2, 3, -1, -1, -1, 7, -1, -1], "children_right": [6, 5, 4, -1, -1, -1, 8, -1, -1], "value": [-3.3306690738754695e-17, 0.3814959070711299, 0.30400991690896595, 0.22964355115832535, 0.3783762826596066, 0.5364678873954579, -0.572243860606695, -1.0438670256088212, -0.10062069560456871]}, {"feature": [0, 0, 0, -2, -2, -2, 0, -2, -2], "threshold": [0.75, 0.6500000059604645, 0.550000011920929, -2.0, -2.0, -2.0, 0.8499999940395355, -2.0, -2.0], "children_left": [1, 2, 3, -1, -1, -1, 7, -1, -1], "children_right": [6, 5, 4, -1, -1, -1, 8, -1, -1], "value": [1.3877787807814457e-17, 0.34334631636401697, 0.27360892521806934, 0.2066791960424928, 0.34053865439364595, 0.48282109865591216, -0.5150194745460255, -0.939480323047939, -0.09055862604411184]}, {"feature": [0, 0, 0, -2, -2, -2, 0, -2, -2], "threshold": [0.75, 0.6500000059604645, 0.550000011920929, -2.0, -2.0, -2.0, 0.8499999940395355, -2.0, -2.0], "children_left": [1, 2, 3, -1, -1, -1, 7, -1, -1], "children_right": [6, 5, 4, -1, -1, -1, 8, -1, -1], "value": [1.9428902930940238e-17, 0.30901168472761525, 0.24624803269626241, 0.1860112764382435, 0.30648478895428133, 0.43453898879032093, -0.46351752709142285, -0.8455322907431451, -0.08150276343970066]}, {"feature": [0, 0, 0, -2, -2, -2, 0, -2, -2], "threshold": [0.75, 0.6500000059604645, 0.550000011920929, -2.0, -2.0, -2.0, 0.8499999940395355, -2.0, -2.0], "children_left": [1, 2, 3, -1, -1, -1, 7, -1, -1], "children_right": [6, 5, 4, -1, -1, -1, 8, -1, -1], "value": [2.4980018054066023e-17, 0.2781105162548538, 0.2216232294266362, 0.16741014879441918, 0.27583631005885323, 0.3910850899112889, -0.4171657743822806, -0.7609790616688306, -0.0733524870957306]}, {"feature": [0, 0, 0, -2, -2, -2, 0, -2, -2], "threshold": [0.75, 0.6500000059604645, 0.550000011920929, -2.0, -2.0, -2.0, 0.8499999940395355, -2.0, -2.0], "children_left": [1, 2, 3, -1, -1, -1, 7, -1, -1], "children_right": [6, 5, 4, -1, -1, -1, 8, -1, -1], "value": [1.1102230246251566e-17, 0.2502994646293684, 0.19946090648397258, 0.15066913391497727, 0.24825267905296788, 0.35197658092016004, -0.37544919694405254, -0.6848811555019476, -0.06601723838615753]}, {"feature": [0, 0, 0, -2, -2, -2, 0, -2, -2], "threshold": [0.75, 0.6500000059604645, 0.550000011920929, -2.0, -2.0, -2.0, 0.8499999940395355, -2.0, -2.0], "children_left": [1, 2, 3, -1, -1, -1, 7, -1, -1], "children_right": [6, 5, 4, -1, -1, -1, 8, -1, -1], "value": [2.4980018054066023e-17, 0.22526951816643156, 0.1795148158355753, 0.13560222052347953, 0.22342741114767106, 0.316778922828144, -0.3379042772496473, -0.6163930399517528, -0.05941551454754178]}, {"feature": [0, 0, 0, -2, -2, -2, 0, -2, -2], "threshold": [0.75, 0.6500000059604645, 0.550000011920929, -2.0, -2.0, -2.0, 0.8499999940395355, -2.0, -2.0], "children_left": [1, 2, 3, -1, -1, -1, 7, -1, -1], "children_right": [6, 5, 4, -1, -1, -1, 8, -1, -1], "value": [4.163336342344337e-18, 0.20274256634978838, 0.16156333425201777, 0.12204199847113156, 0.20108467003290398, 0.28510103054532965, -0.30411384952468257, -0.5547537359565775, -0.0534739630927876]}, {"feature": [0, 0, 0, -2, -2, -2, 0, -2, -2], "threshold": [0.75, 0.6500000059604645, 0.550000011920929, -2.0, -2.0, -2.0, 0.8499999940395355, -2.0, -2.0], "children_left": [1, 2, 3, -1, -1, -1, 7, -1, -1], "children_right": [6, 5, 4, -1, -1, -1, 8, -1, -1], "value": [1.2490009027033011e-17, 0.18246830971480957, 0.145407000826816, 0.10983779862401843, 0.1809762030296136, 0.2565909274907967, -0.2737024645722143, -0.4992783623609198, -0.048126566783508844]}, {"feature": [0, 0, 0, -2, -2, -2, 0, -2, -2], "threshold": [0.75, 0.6500000059604645, 0.550000011920929, -2.0, -2.0, -2.0, 0.8499999940395355, -2.0, -2.0], "children_left": [1, 2, 3, -1, -1, -1, 7, -1, -1], "children_right": [6, 5, 4, -1, -1, -1, 8, -1, -1], "value": [1.9428902930940238e-17, 0.16422147874332862, 0.1308663007441344, 0.09885401876161659, 0.16287858272665223, 0.23093183474171708, -0.2463322181149929, -0.44935052612482784, -0.04331391010515796]}, {"feature": [0, 0, 0, -2, -2, -2, 0, -2, -2], "threshold": [0.75, 0.6500000059604645, 0.550000011920929, -2.0, -2.0, -2.0, 0.8499999940395355, -2.0, -2.0], "children_left": [1, 2, 3, -1, -1, -1, 7, -1, -1], "children_right": [6, 5, 4, -1, -1, -1, 8, -1, -1], "value": [2.3592239273284576e-17, 0.1477993308689958, 0.11777967066972098, 0.08896861688545493, 0.14659072445398702, 0.20783865126754542, -0.22169899630349363, -0.4044154735123451, -0.03898251909464217]}, {"feature": [0, 0, 0, -2, -2, -2, 0, -2, -2], "threshold": [0.75, 0.6500000059604645, 0.550000011920929, -2.0, -2.0, -2.0, 0.8499999940395355, -2.0, -2.0], "children_left": [1, 2, 3, -1, -1, -1, 7, -1, -1], "children_right": [6, 5, 4, -1, -1, -1, 8, -1, -1], "value": [2.914335439641036e-17, 0.13301939778209623, 0.10600170360274891, 0.08007175519690946, 0.13193165200858836, 0.18705478614079085, -0.19952909667314425, -0.3639739261611106, -0.03508426718517795]}, {"feature": [0, 0, 0, -2, -2, -2, 0, -2, -2], "threshold": [0.75, 0.6500000059604645, 0.550000011920929, -2.0, -2.0, -2.0, 0.8499999940395355, -2.0, -2.0], "children_left": [1, 2, 3, -1, -1, -1, 7, -1, -1], "children_right": [6, 5, 4, -1, -1, -1, 8, -1, -1], "value": [-6.938893903907228e-18, 0.11971745800388657, 0.095401533242474, 0.07206457967721852, 0.11873848680772947, 0.16834930752671173, -0.1795761870058299, -0.3275765335449996, -0.031575840466660156]}, {"feature": [0, 0, 0, -2, -2, -2, 0, -2, -2], "threshold": [0.75, 0.6500000059604645, 0.550000011920929, -2.0, -2.0, -2.0, 0.8499999940395355, -2.0, -2.0], "children_left": [1, 2, 3, -1, -1, -1, 7, -1, -1], "children_right": [6, 5, 4, -1, -1, -1, 8, -1, -1], "value": [8.326672684688674e-18, 0.10774571220349793, 0.08586137991822662, 0.06485812170949667, 0.10686463812695657, 0.15151437677404056, -0.16161856830524687, -0.2948188801904996, -0.02841825641999414]}, {"feature": [0, 0, 0, -2, -2, -2, 0, -2, -2], "threshold": [0.75, 0.6500000059604645, 0.550000011920929, -2.0, -2.0, -2.0, 0.8499999940395355, -2.0, -2.0], "children_left": [1, 2, 3, -1, -1, -1, 7, -1, -1], "children_right": [6, 5, 4, -1, -1, -1, 8, -1, -1], "value": [6.938893903907228e-18, 0.09697114098314814, 0.07727524192640395, 0.058372309538546996, 0.0961781743142609, 0.13636293909663655, -0.1454567114747222, -0.2653369921714497, -0.02557643077799473]}, {"feature": [0, 0, 0, -2, -2, -2, 0, -2, -2], "threshold": [0.75, 0.6500000059604645, 0.550000011920929, -2.0, -2.0, -2.0, 0.8499999940395355, -2.0, -2.0], "children_left": [1, 2, 3, -1, -1, -1, 7, -1, -1], "children_right": [6, 5, 4, -1, -1, -1, 8, -1, -1], "value": [4.163336342344337e-18, 0.08727402688483332, 0.06954771773376356, 0.05253507858469231, 0.08656035688283481, 0.12272664518697285, -0.13091104032724998, -0.2388032929543047, -0.023018787700195255]}, {"feature": [0, 0, 0, -2, -2, -2, 0, -2, -2], "threshold": [0.75, 0.6500000059604645, 0.550000011920929, -2.0, -2.0, -2.0, 0.8499999940395355, -2.0, -2.0], "children_left": [1, 2, 3, -1, -1, -1, 7, -1, -1], "children_right": [6, 5, 4, -1, -1, -1, 8, -1, -1], "value": [4.163336342344337e-18, 0.07854662419635002, 0.06259294596038723, 0.04728157072622308, 0.07790432119455137, 0.11045398066827561, -0.11781993629452502, -0.2149229636588743, -0.020716908930175727]}, {"feature": [0, 0, 0, -2, -2, -2, 0, -2, -2], "threshold": [0.75, 0.6500000059604645, 0.550000011920929, -2.0, -2.0, -2.0, 0.8499999940395355, -2.0, -2.0], "children_left": [1, 2, 3, -1, -1, -1, 7, -1, -1], "children_right": [6, 5, 4, -1, -1, -1, 8, -1, -1], "value": [1.6653345369377347e-17, 0.07069196177671504, 0.05633365136434848, 0.04255341365360077, 0.07011388907509619, 0.09940858260144814, -0.10603794266507251, -0.19343066729298686, -0.018645218037158157]}, {"feature": [0, 0, 0, -2, -2, -2, 0, -2, -2], "threshold": [0.75, 0.6500000059604645, 0.550000011920929, -2.0, -2.0, -2.0, 0.8499999940395355, -2.0, -2.0], "children_left": [1, 2, 3, -1, -1, -1, 7, -1, -1], "children_right": [6, 5, 4, -1, -1, -1, 8, -1, -1], "value": [4.163336342344337e-18, 0.06362276559904352, 0.050700286227913616, 0.03829807228824067, 0.06310250016758656, 0.08946772434130335, -0.09543414839856527, -0.17408760056368822, -0.01678069623344234]}, {"feature": [0, 0, 0, -2, -2, -2, 0, -2, -2], "threshold": [0.75, 0.6500000059604645, 0.550000011920929, -2.0, -2.0, -2.0, 0.8499999940395355, -2.0, -2.0], "children_left": [1, 2, 3, -1, -1, -1, 7, -1, -1], "children_right": [6, 5, 4, -1, -1, -1, 8, -1, -1], "value": [-2.7755575615628915e-18, 0.05726048903913916, 0.04563025760512224, 0.03446826505941658, 0.056792250150827894, 0.08052095190717301, -0.08589073355870874, -0.1566788405073194, -0.015102626610098105]}, {"feature": [0, 0, 0, -2, -2, -2, 0, -2, -2], "threshold": [0.75, 0.6500000059604645, 0.550000011920929, -2.0, -2.0, -2.0, 0.8499999940395355, -2.0, -2.0], "children_left": [1, 2, 3, -1, -1, -1, 7, -1, -1], "children_right": [6, 5, 4, -1, -1, -1, 8, -1, -1], "value": [3.469446951953614e-17, 0.05153444013522527, 0.04106723184461003, 0.031021438553474945, 0.051113025135745116, 0.07246885671645575, -0.07730166020283782, -0.14101095645658734, -0.013592363949088297]}, {"feature": [0, 0, 0, -2, -2, -2, 0, -2, -2], "threshold": [0.75, 0.6500000059604645, 0.550000011920929, -2.0, -2.0, -2.0, 0.8499999940395355, -2.0, -2.0], "children_left": [1, 2, 3, -1, -1, -1, 7, -1, -1], "children_right": [6, 5, 4, -1, -1, -1, 8, -1, -1], "value": [5.551115123125783e-18, 0.04638099612170273, 0.03696050866014905, 0.027919294698127484, 0.046001722622170615, 0.06522197104481009, -0.06957149418255408, -0.1269098608109287, -0.012233127554179463]}, {"feature": [0, 0, 0, -2, -2, -2, 0, -2, -2], "threshold": [0.75, 0.6500000059604645, 0.550000011920929, -2.0, -2.0, -2.0, 0.8499999940395355, -2.0, -2.0], "children_left": [1, 2, 3, -1, -1, -1, 7, -1, -1], "children_right": [6, 5, 4, -1, -1, -1, 8, -1, -1], "value": [-2.4980018054066023e-17, 0.04174289650953241, 0.03326445779413412, 0.025127365228314713, 0.04140155035995352, 0.05869977394032899, -0.06261434476429867, -0.11421887472983583, -0.011009814798761522]}, {"feature": [0, 0, 0, -2, -2, -2, 0, -2, -2], "threshold": [0.75, 0.6500000059604645, 0.550000011920929, -2.0, -2.0, -2.0, 0.8499999940395355, -2.0, -2.0], "children_left": [1, 2, 3, -1, -1, -1, 7, -1, -1], "children_right": [6, 5, 4, -1, -1, -1, 8, -1, -1], "value": [0.0, 0.03756860685857918, 0.02993801201472074, 0.022614628705483253, 0.037261395323958224, 0.05282979654629605, -0.05635291028786876, -0.10279698725685216, -0.009908833318885368]}, {"feature": [0, 0, 0, -2, -2, -2, 0, -2, -2], "threshold": [0.75, 0.6500000059604645, 0.550000011920929, -2.0, -2.0, -2.0, 0.8499999940395355, -2.0, -2.0], "children_left": [1, 2, 3, -1, -1, -1, 7, -1, -1], "children_right": [6, 5, 4, -1, -1, -1, 8, -1, -1], "value": [-5.551115123125783e-18, 0.03381174617272124, 0.02694421081324866, 0.02035316583493496, 0.03353525579156236, 0.0475468168916664, -0.05071761925908187, -0.09251728853116692, -0.008917949986996826]}, {"feature": [0, 0, 0, -2, -2, -2, 0, -2, -2], "threshold": [0.75, 0.6500000059604645, 0.550000011920929, -2.0, -2.0, -2.0, 0.8499999940395355, -2.0, -2.0], "children_left": [1, 2, 3, -1, -1, -1, 7, -1, -1], "children_right": [6, 5, 4, -1, -1, -1, 8, -1, -1], "value": [-1.6653345369377347e-17, 0.03043057155544911, 0.024249789731923765, 0.01831784925144142, 0.03018173021240611, 0.042792135202499804, -0.04564585733317371, -0.08326555967805027, -0.008026154988297146]}, {"feature": [0, 0, 0, -2, -2, -2, 0, -2, -2], "threshold": [0.75, 0.6500000059604645, 0.550000011920929, -2.0, -2.0, -2.0, 0.8499999940395355, -2.0, -2.0], "children_left": [1, 2, 3, -1, -1, -1, 7, -1, -1], "children_right": [6, 5, 4, -1, -1, -1, 8, -1, -1], "value": [-4.718447854656915e-17, 0.027387514399904167, 0.021824810758731383, 0.01648606432629729, 0.027163557191165477, 0.038512921682249734, -0.04108127159985637, -0.07493900371024531, -0.007223539489467426]}, {"feature": [0, 0, 0, -2, -2, -2, 0, -2, -2], "threshold": [0.75, 0.6500000059604645, 0.550000011920929, -2.0, -2.0, -2.0, 0.8499999940395355, -2.0, -2.0], "children_left": [1, 2, 3, -1, -1, -1, 7, -1, -1], "children_right": [6, 5, 4, -1, -1, -1, 8, -1, -1], "value": [-3.8857805861880476e-17, 0.024648762959913733, 0.01964232968285823, 0.014837457893667527, 0.02444720147204893, 0.03466162951402474, -0.036973144439870695, -0.06744510333922071, -0.006501185540520676]}, {"feature": [0, 0, 0, -2, -2, -2, 0, -2, -2], "threshold": [0.75, 0.6500000059604645, 0.550000011920929, -2.0, -2.0, -2.0, 0.8499999940395355, -2.0, -2.0], "children_left": [1, 2, 3, -1, -1, -1, 7, -1, -1], "children_right": [6, 5, 4, -1, -1, -1, 8, -1, -1], "value": [-3.608224830031759e-17, 0.022183886663922348, 0.017678096714572433, 0.013353712104300808, 0.02200248132484406, 0.031195466562622176, -0.03327582999588361, -0.06070059300529862, -0.005851066986468603]}, {"feature": [0, 0, 0, -2, -2, -2, 0, -2, -2], "threshold": [0.75, 0.6500000059604645, 0.550000011920929, -2.0, -2.0, -2.0, 0.8499999940395355, -2.0, -2.0], "children_left": [1, 2, 3, -1, -1, -1, 7, -1, -1], "children_right": [6, 5, 4, -1, -1, -1, 8, -1, -1], "value": [-1.3877787807814457e-17, 0.01996549799753015, 0.0159102870431152, 0.012018340893870771, 0.01980223319235963, 0.028075919906360047, -0.02994824699629526, -0.05463053370476878, -0.005265960287821739]}, {"feature": [0, 0, 0, -2, -2, -2, 0, -2, -2], "threshold": [0.75, 0.6500000059604645, 0.550000011920929, -2.0, -2.0, -2.0, 0.8499999940395355, -2.0, -2.0], "children_left": [1, 2, 3, -1, -1, -1, 7, -1, -1], "children_right": [6, 5, 4, -1, -1, -1, 8, -1, -1], "value": [-2.7755575615628914e-17, 0.017968948197777095, 0.014319258338803653, 0.01081650680448365, 0.017822009873123656, 0.025268327915723976, -0.02695342229666571, -0.04916748033429186, -0.0047393642590395635]}, {"feature": [0, 0, 0, -2, -2, -2, 0, -2, -2], "threshold": [0.75, 0.6500000059604645, 0.550000011920929, -2.0, -2.0, -2.0, 0.8499999940395355, -2.0, -2.0], "children_left": [1, 2, 3, -1, -1, -1, 7, -1, -1], "children_right": [6, 5, 4, -1, -1, -1, 8, -1, -1], "value": [-5.551115123125783e-17, 0.016172053377999356, 0.012887332504923243, 0.00973485612403524, 0.016039808885811246, 0.02274149512415158, -0.02425808006699917, -0.04425073230086274, -0.004265427833135604]}, {"feature": [0, 0, 0, -2, -2, -2, 0, -2, -2], "threshold": [0.75, 0.6500000059604645, 0.550000011920929, -2.0, -2.0, -2.0, 0.8499999940395355, -2.0, -2.0], "children_left": [1, 2, 3, -1, -1, -1, 7, -1, -1], "children_right": [6, 5, 4, -1, -1, -1, 8, -1, -1], "value": [-5.551115123125783e-17, 0.01455484804019939, 0.011598599254430908, 0.008761370511631728, 0.014435827997230088, 0.020467345611736354, -0.021832272060299224, -0.0398256590707764, -0.0038388850498220495]}, {"feature": [0, 0, 0, -2, -2, -2, 0, -2, -2], "threshold": [0.75, 0.6500000059604645, 0.550000011920929, -2.0, -2.0, -2.0, 0.8499999940395355, -2.0, -2.0], "children_left": [1, 2, 3, -1, -1, -1, 7, -1, -1], "children_right": [6, 5, 4, -1, -1, -1, 8, -1, -1], "value": [-6.938893903907228e-17, 0.01309936323617944, 0.010438739328987812, 0.007885233460468544, 0.01299224519750708, 0.018420611050562696, -0.019649044854269333, -0.035843093163698825, -0.0034549965448398418]}, {"feature": [0, 0, 0, -2, -2, -2, 0, -2, -2], "threshold": [0.75, 0.6500000059604645, 0.550000011920929, -2.0, -2.0, -2.0, 0.8499999940395355, -2.0, -2.0], "children_left": [1, 2, 3, -1, -1, -1, 7, -1, -1], "children_right": [6, 5, 4, -1, -1, -1, 8, -1, -1], "value": [-6.106226635438361e-17, 0.011789426912561499, 0.009394865396089025, 0.0070967101144217, 0.01169302067775635, 0.01657854994550645, -0.017684140368842402, -0.03225878384732894, -0.0031094968903558617]}, {"feature": [0, 0, 0, -2, -2, -2, 0, -2, -2], "threshold": [0.75, 0.6500000059604645, 0.550000011920929, -2.0, -2.0, -2.0, 0.8499999940395355, -2.0, -2.0], "children_left": [1, 2, 3, -1, -1, -1, 7, -1, -1], "children_right": [6, 5, 4, -1, -1, -1, 8, -1, -1], "value": [-5.551115123125783e-17, 0.01061048422130532, 0.008455378856480122, 0.006387039102979553, 0.010523718609980692, 0.014920694950955715, -0.01591572633195812, -0.02903290546259596, -0.0027985472013202783]}, {"feature": [0, 0, 0, -2, -2, -2, 0, -2, -2], "threshold": [0.75, 0.6500000059604645, 0.550000011920929, -2.0, -2.0, -2.0, 0.8499999940395355, -2.0, -2.0], "children_left": [1, 2, 3, -1, -1, -1, 7, -1, -1], "children_right": [6, 5, 4, -1, -1, -1, 8, -1, -1], "value": [-3.3306690738754695e-17, 0.009549435799174813, 0.007609840970832116, 0.005748335192681586, 0.009471346748982645, 0.01342862545586021, -0.014324153698762304, -0.026129614916336363, -0.002518692481188245]}, {"feature": [0, 0, 0, -2, -2, -2, 0, -2, -2], "threshold": [0.75, 0.6500000059604645, 0.550000011920929, -2.0, -2.0, -2.0, 0.8499999940395355, -2.0, -2.0], "children_left": [1, 2, 3, -1, -1, -1, 7, -1, -1], "children_right": [6, 5, 4, -1, -1, -1, 8, -1, -1], "value": [-1.1102230246251566e-17, 0.008594492219257344, 0.006848856873748921, 0.005173501673413461, 0.00852421207408438, 0.01208576291027419, -0.012891738328886043, -0.02351665342470266, -0.002266823233069426]}, {"feature": [0, 0, 0, -2, -2, -2, 0, -2, -2], "threshold": [0.75, 0.6500000059604645, 0.550000011920929, -2.0, -2.0, -2.0, 0.8499999940395355, -2.0, -2.0], "children_left": [1, 2, 3, -1, -1, -1, 7, -1, -1], "children_right": [6, 5, 4, -1, -1, -1, 8, -1, -1], "value": [-2.7755575615628914e-17, 0.007735042997331594, 0.006163971186374018, 0.004656151506072126, 0.007671790866675909, 0.010877186619246748, -0.011602564495997461, -0.02116498808223244, -0.0020401409097624834]}, {"feature": [0, 0, 0, -2, -2, -2, 0, -2, -2], "threshold": [0.75, 0.6500000059604645, 0.550000011920929, -2.0, -2.0, -2.0, 0.8499999940395355, -2.0, -2.0], "children_left": [1, 2, 3, -1, -1, -1, 7, -1, -1], "children_right": [6, 5, 4, -1, -1, -1, 8, -1, -1], "value": [-3.053113317719181e-17, 0.00696153869759845, 0.005547574067736649, 0.004190536355464958, 0.006904611780008341, 0.009789467957322051, -0.010442308046397751, -0.01904848927400926, -0.0018361268187862406]}, {"feature": [0, 0, 0, -2, -2, -2, 0, -2, -2], "threshold": [0.75, 0.6500000059604645, 0.550000011920929, -2.0, -2.0, -2.0, 0.8499999940395355, -2.0, -2.0], "children_left": [1, 2, 3, -1, -1, -1, 7, -1, -1], "children_right": [6, 5, 4, -1, -1, -1, 8, -1, -1], "value": [-2.7755575615628914e-17, 0.006265384827838598, 0.004992816660962962, 0.003771482719918451, 0.006214150602007473, 0.008810521161589868, -0.009398077241757966, -0.017143640346608313, -0.001652514136907618]}, {"feature": [0, 0, 0, -2, -2, -2, 0, -2, -2], "threshold": [0.75, 0.6500000059604645, 0.550000011920929, -2.0, -2.0, -2.0, 0.8499999940395355, -2.0, -2.0], "children_left": [1, 2, 3, -1, -1, -1, 7, -1, -1], "children_right": [6, 5, 4, -1, -1, -1, 8, -1, -1], "value": [-4.163336342344337e-17, 0.0056388463450547, 0.004493534994866655, 0.0033943344479265836, 0.005592735541806726, 0.007929469045430793, -0.008458269517582155, -0.01542927631194746, -0.0014872627232168506]}, {"feature": [0, 0, 0, -2, -2, -2, 0, -2, -2], "threshold": [0.75, 0.6500000059604645, 0.550000011920929, -2.0, -2.0, -2.0, 0.8499999940395355, -2.0, -2.0], "children_left": [1, 2, 3, -1, -1, -1, 7, -1, -1], "children_right": [6, 5, 4, -1, -1, -1, 8, -1, -1], "value": [-8.049116928532385e-17, 0.005074961710549182, 0.004044181495379939, 0.003054901003133881, 0.005033461987625998, 0.007136522140887669, -0.007612442565823975, -0.01388634868075278, -0.0013385364508951697]}, {"feature": [0, 0, 0, -2, -2, -2, 0, -2, -2], "threshold": [0.75, 0.6500000059604645, 0.550000011920929, -2.0, -2.0, -2.0, 0.8499999940395355, -2.0, -2.0], "children_left": [1, 2, 3, -1, -1, -1, 7, -1, -1], "children_right": [6, 5, 4, -1, -1, -1, 8, -1, -1], "value": [-6.661338147750939e-17, 0.004567465539494313, 0.0036397633458419842, 0.0027494109028205482, 0.00453011578886342, 0.006422869926798969, -0.006851198309241635, -0.012497713812677613, -0.001204682805805657]}, {"feature": [0, 0, 0, -2, -2, -2, 0, -2, -2], "threshold": [0.75, 0.6500000059604645, 0.550000011920929, -2.0, -2.0, -2.0, 0.8499999940395355, -2.0, -2.0], "children_left": [1, 2, 3, -1, -1, -1, 7, -1, -1], "children_right": [6, 5, 4, -1, -1, -1, 8, -1, -1], "value": [-3.8857805861880476e-17, 0.004110718985544899, 0.0032757870112578025, 0.0024744698125385156, 0.004077104209977089, 0.005780582934119094, -0.006166078478317447, -0.011247942431409808, -0.0010842145252250857]}, {"feature": [0, 0, 0, -2, -2, -2, 0, -2, -2], "threshold": [0.75, 0.6500000059604645, 0.550000011920929, -2.0, -2.0, -2.0, 0.8499999940395355, -2.0, -2.0], "children_left": [1, 2, 3, -1, -1, -1, 7, -1, -1], "children_right": [6, 5, 4, -1, -1, -1, 8, -1, -1], "value": [-4.718447854656915e-17, 0.003699647086990406, 0.0029482083101319834, 0.0022270228312846196, 0.003669393788979347, 0.005202524640707251, -0.005549470630485727, -0.010123148188268871, -0.0009757930727025826]}, {"feature": [0, 0, 0, -2, -2, -2, 0, -2, -2], "threshold": [0.75, 0.6500000059604645, 0.550000011920929, -2.0, -2.0, -2.0, 0.8499999940395355, -2.0, -2.0], "children_left": [1, 2, 3, -1, -1, -1, 7, -1, -1], "children_right": [6, 5, 4, -1, -1, -1, 8, -1, -1], "value": [-4.9960036108132046e-17, 0.00332968237829138, 0.0026533874791187517, 0.0020043205481561355, 0.003302454410081368, 0.004682272176636637, -0.004994523567437195, -0.009110833369442073, -0.0008782137654323174]}, {"feature": [0, 0, 0, -2, -2, -2, 0, -2, -2], "threshold": [0.75, 0.6500000059604645, 0.550000011920929, -2.0, -2.0, -2.0, 0.8499999940395355, -2.0, -2.0], "children_left": [1, 2, 3, -1, -1, -1, 7, -1, -1], "children_right": [6, 5, 4, -1, -1, -1, 8, -1, -1], "value": [-6.106226635438361e-17, 0.0029967141404622457, 0.0023880487312069043, 0.0018038884933405663, 0.0029722089690732423, 0.004214044958972929, -0.0044950712106935214, -0.008199750032497954, -0.0007903923888890885]}, {"feature": [0, 0, 0, -2, -2, -2, 0, -2, -2], "threshold": [0.75, 0.6500000059604645, 0.550000011920929, -2.0, -2.0, -2.0, 0.8499999940395355, -2.0, -2.0], "children_left": [1, 2, 3, -1, -1, -1, 7, -1, -1], "children_right": [6, 5, 4, -1, -1, -1, 8, -1, -1], "value": [-2.7755575615628914e-17, 0.002697042726416058, 0.002149243858086236, 0.001623499644006543, 0.002674988072165929, 0.0037926404630757027, -0.004045564089624157, -0.007379775029248137, -0.0007113531500001768]}, {"feature": [0, 0, 0, -2, -2, -2, 0, -2, -2], "threshold": [0.75, 0.6500000059604645, 0.550000011920929, -2.0, -2.0, -2.0, 0.8499999940395355, -2.0, -2.0], "children_left": [1, 2, 3, -1, -1, -1, 7, -1, -1], "children_right": [6, 5, 4, -1, -1, -1, 8, -1, -1], "value": [-3.053113317719181e-17, 0.002427338453774445, 0.0019343194722776236, 0.0014611496796058665, 0.0024074892649493806, 0.003413376416768088, -0.003641007680661744, -0.006641797526323323, -0.0006402178350001647]}, {"feature": [0, 0, 0, -2, -2, -2, 0, -2, -2], "threshold": [0.75, 0.6500000059604645, 0.550000011920929, -2.0, -2.0, -2.0, 0.8499999940395355, -2.0, -2.0], "children_left": [1, 2, 3, -1, -1, -1, 7, -1, -1], "children_right": [6, 5, 4, -1, -1, -1, 8, -1, -1], "value": [-1.9428902930940238e-17, 0.002184604608397015, 0.0017408875250498612, 0.001315034711645291, 0.0021667403384544315, 0.0030720387750913236, -0.0032769069125955716, -0.005977617773690991, -0.0005761960515001524]}, {"feature": [0, 0, 0, -2, -2, -2, 0, -2, -2], "threshold": [0.75, 0.6500000059604645, 0.550000011920929, -2.0, -2.0, -2.0, 0.8499999940395355, -2.0, -2.0], "children_left": [1, 2, 3, -1, -1, -1, 7, -1, -1], "children_right": [6, 5, 4, -1, -1, -1, 8, -1, -1], "value": [-5.551115123125783e-18, 0.0019661441475573214, 0.0015667987725448973, 0.0011835312404807619, 0.0019500663046090327, 0.002764834897582169, -0.0029492162213359957, -0.005379855996321847, -0.0005185764463501441]}, {"feature": [0, 0, 0, -2, -2, -2, 0, -2, -2], "threshold": [0.75, 0.6500000059604645, 0.550000011920929, -2.0, -2.0, -2.0, 0.8499999940395355, -2.0, -2.0], "children_left": [1, 2, 3, -1, -1, -1, 7, -1, -1], "children_right": [6, 5, 4, -1, -1, -1, 8, -1, -1], "value": [-2.7755575615628915e-18, 0.0017695297328016075, 0.0014101188952904131, 0.0010651781164326968, 0.0017550596741481295, 0.0024883514078239966, -0.0026542945992024183, -0.004841870396689707, -0.0004667188017151297]}, {"feature": [0, 0, 0, -2, -2, -2, 0, -2, -2], "threshold": [0.75, 0.6500000059604645, 0.550000011920929, -2.0, -2.0, -2.0, 0.8499999940395355, -2.0, -2.0], "children_left": [1, 2, 3, -1, -1, -1, 7, -1, -1], "children_right": [6, 5, 4, -1, -1, -1, 8, -1, -1], "value": [2.4980018054066023e-17, 0.0015925767595214764, 0.001269107005761383, 0.000958660304789416, 0.0015795537067333498, 0.0022395162670416635, -0.002388865139282152, -0.004357683357020692, -0.00042004692154361256]}, {"feature": [0, 0, 0, -2, -2, -2, 0, -2, -2], "threshold": [0.75, 0.6500000059604645, 0.550000011920929, -2.0, -2.0, -2.0, 0.8499999940395355, -2.0, -2.0], "children_left": [1, 2, 3, -1, -1, -1, 7, -1, -1], "children_right": [6, 5, 4, -1, -1, -1, 8, -1, -1], "value": [3.3306690738754695e-17, 0.001433319083569325, 0.0011421963051852502, 0.0008627942743104633, 0.001421598336060037, 0.002015564640337475, -0.0021499786253539044, -0.003921915021318556, -0.0003780422293892527]}, {"feature": [0, 0, 0, -2, -2, -2, 0, -2, -2], "threshold": [0.75, 0.6500000059604645, 0.550000011920929, -2.0, -2.0, -2.0, 0.8499999940395355, -2.0, -2.0], "children_left": [1, 2, 3, -1, -1, -1, 7, -1, -1], "children_right": [6, 5, 4, -1, -1, -1, 8, -1, -1], "value": [2.2204460492503132e-17, 0.0012899871752123742, 0.001027976674666753, 0.0007765148468794614, 0.0012794385024540444, 0.0018140081763036164, -0.0019349807628185056, -0.0035297235191866783, -0.000340238006450333]}, {"feature": [0, 0, 0, -2, -2, -2, 0, -2, -2], "threshold": [0.75, 0.6500000059604645, 0.550000011920929, -2.0, -2.0, -2.0, 0.8499999940395355, -2.0, -2.0], "children_left": [1, 2, 3, -1, -1, -1, 7, -1, -1], "children_right": [6, 5, 4, -1, -1, -1, 8, -1, -1], "value": [8.326672684688674e-18, 0.0011609884576911182, 0.0009251790072000721, 0.000698863362191493, 0.001151494652208651, 0.0016326073586732104, -0.0017414826865366564, -0.0031767511672680104, -0.00030621420580530245]}, {"feature": [0, 0, 0, -2, -2, -2, 0, -2, -2], "threshold": [0.75, 0.6500000059604645, 0.550000011920929, -2.0, -2.0, -2.0, 0.8499999940395355, -2.0, -2.0], "children_left": [1, 2, 3, -1, -1, -1, 7, -1, -1], "children_right": [6, 5, 4, -1, -1, -1, 8, -1, -1], "value": [3.3306690738754695e-17, 0.0010448896119220248, 0.0008326611064800593, 0.0006289770259723104, 0.0010363451869878082, 0.001469346622805956, -0.001567334417882954, -0.0028590760505411428, -0.00027559278522476527]}, {"feature": [0, 0, 0, -2, -2, -2, 0, -2, -2], "threshold": [0.75, 0.6500000059604645, 0.550000011920929, -2.0, -2.0, -2.0, 0.8499999940395355, -2.0, -2.0], "children_left": [1, 2, 3, -1, -1, -1, 7, -1, -1], "children_right": [6, 5, 4, -1, -1, -1, 8, -1, -1], "value": [8.326672684688674e-18, 0.0009404006507297927, 0.0007493949958320423, 0.0005660793233750461, 0.0009327106682890385, 0.0013224119605252938, -0.0014106009760946683, -0.0025731684454870507, -0.00024803350670228597]}, {"feature": [0, 0, 0, -2, -2, -2, 0, -2, -2], "threshold": [0.75, 0.6500000059604645, 0.550000011920929, -2.0, -2.0, -2.0, 0.8499999940395355, -2.0, -2.0], "children_left": [1, 2, 3, -1, -1, -1, 7, -1, -1], "children_right": [6, 5, 4, -1, -1, -1, 8, -1, -1], "value": [3.053113317719181e-17, 0.0008463605856568283, 0.000674455496248838, 0.0005094713910375193, 0.0008394396014601568, 0.0011901707644728088, -0.0012695408784851661, -0.002315851600938279, -0.0002232301560320532]}, {"feature": [0, 0, 0, -2, -2, -2, 0, -2, -2], "threshold": [0.75, 0.6500000059604645, 0.550000011920929, -2.0, -2.0, -2.0, 0.8499999940395355, -2.0, -2.0], "children_left": [1, 2, 3, -1, -1, -1, 7, -1, -1], "children_right": [6, 5, 4, -1, -1, -1, 8, -1, -1], "value": [2.7755575615628915e-18, 0.0007617245270911122, 0.0006070099466239376, 0.0004585242519337118, 0.0007554956413141634, 0.0010711536880254613, -0.0011425867906366613, -0.0020842664408444733, -0.00020090714042884927]}, {"feature": [0, 0, 0, -2, -2, -2, 0, -2, -2], "threshold": [0.75, 0.6500000059604645, 0.550000011920929, -2.0, -2.0, -2.0, 0.8499999940395355, -2.0, -2.0], "children_left": [1, 2, 3, -1, -1, -1, 7, -1, -1], "children_right": [6, 5, 4, -1, -1, -1, 8, -1, -1], "value": [-1.3877787807814457e-17, 0.0006855520743819602, 0.000546308951961505, 0.00041267182674031844, 0.0006799460771826915, 0.0009640383192228708, -0.001028328111572975, -0.0018758397967599816, -0.0001808164263859685]}, {"feature": [0, 0, 0, -2, -2, -2, 0, -2, -2], "threshold": [0.75, 0.6500000059604645, 0.550000011920929, -2.0, -2.0, -2.0, 0.8499999940395355, -2.0, -2.0], "children_left": [1, 2, 3, -1, -1, -1, 7, -1, -1], "children_right": [6, 5, 4, -1, -1, -1, 8, -1, -1], "value": [-1.6653345369377347e-17, 0.0006169968669437939, 0.0004916780567653656, 0.0003714046440662644, 0.0006119514694644668, 0.0008676344873006503, -0.0009254953004157324, -0.0016882558170840944, -0.00016273478374737027]}, {"feature": [0, 0, 0, -2, -2, -2, 0, -2, -2], "threshold": [0.75, 0.6500000059604645, 0.550000011920929, -2.0, -2.0, -2.0, 0.8499999940395355, -2.0, -2.0], "children_left": [1, 2, 3, -1, -1, -1, 7, -1, -1], "children_right": [6, 5, 4, -1, -1, -1, 8, -1, -1], "value": [5.551115123125783e-18, 0.0005552971802494181, 0.00044251025108882347, 0.00033426417965964905, 0.0005507563225179979, 0.0007808710385706075, -0.0008329457703741133, -0.0015194302353755962, -0.00014646130537263047]}, {"feature": [0, 0, 0, -2, -2, -2, 0, -2, -2], "threshold": [0.75, 0.6500000059604645, 0.550000011920929, -2.0, -2.0, -2.0, 0.8499999940395355, -2.0, -2.0], "children_left": [1, 2, 3, -1, -1, -1, 7, -1, -1], "children_right": [6, 5, 4, -1, -1, -1, 8, -1, -1], "value": [-1.3877787807814457e-17, 0.0004997674622244652, 0.00039825922597991337, 0.00030083776169365084, 0.0004956806902661759, 0.0007027839347135689, -0.0007496511933367325, -0.0013674872118381032, -0.00013181517483536187]}, {"feature": [0, 0, 0, -2, -2, -2, 0, -2, -2], "threshold": [0.75, 0.6500000059604645, 0.550000011920929, -2.0, -2.0, -2.0, 0.8499999940395355, -2.0, -2.0], "children_left": [1, 2, 3, -1, -1, -1, 7, -1, -1], "children_right": [6, 5, 4, -1, -1, -1, 8, -1, -1], "value": [-1.1102230246251566e-17, 0.0004497907160020039, 0.00035843330338192203, 0.00027075398552423025, 0.0004461126212396138, 0.0006325055412421676, -0.0006746860740030336, -0.0012307384906542485, -0.00011863365735181874]}, {"feature": [0, 0, 0, -2, -2, -2, 0, -2, -2], "threshold": [0.75, 0.6500000059604645, 0.550000011920929, -2.0, -2.0, -2.0, 0.8499999940395355, -2.0, -2.0], "children_left": [1, 2, 3, -1, -1, -1, 7, -1, -1], "children_right": [6, 5, 4, -1, -1, -1, 8, -1, -1], "value": [-1.9428902930940238e-17, 0.0004048116444017961, 0.00032258997304374093, 0.00024367858697182943, 0.00040150135911565243, 0.0005692549871179065, -0.0006072174666027427, -0.0011076646415888458, -0.00010677029161663965]}, {"feature": [0, 0, 0, -2, -2, -2, 0, -2, -2], "threshold": [0.75, 0.6500000059604645, 0.550000011920929, -2.0, -2.0, -2.0, 0.8499999940395355, -2.0, -2.0], "children_left": [1, 2, 3, -1, -1, -1, 7, -1, -1], "children_right": [6, 5, 4, -1, -1, -1, 8, -1, -1], "value": [-2.7755575615628915e-18, 0.0003643304799616498, 0.0002903309757393835, 0.00021931072827463538, 0.0003613512232041316, 0.0005123294884061824, -0.0005464957199424816, -0.0009968981774299834, -9.609326245497984e-05]}, {"feature": [0, 0, 0, -2, -2, -2, 0, -2, -2], "threshold": [0.75, 0.6500000059604645, 0.550000011920929, -2.0, -2.0, -2.0, 0.8499999940395355, -2.0, -2.0], "children_left": [1, 2, 3, -1, -1, -1, 7, -1, -1], "children_right": [6, 5, 4, -1, -1, -1, 8, -1, -1], "value": [-2.7755575615628915e-18, 0.0003278974319654848, 0.00026129787816547845, 0.00019737965544719405, 0.00032521610088376285, 0.00046109653956549757, -0.0004918461479482342, -0.0008972083596869851, -8.648393620948325e-05]}, {"feature": [0, 0, 0, -2, -2, -2, 0, -2, -2], "threshold": [0.75, 0.6500000059604645, 0.550000011920929, -2.0, -2.0, -2.0, 0.8499999940395355, -2.0, -2.0], "children_left": [1, 2, 3, -1, -1, -1, 7, -1, -1], "children_right": [6, 5, 4, -1, -1, -1, 8, -1, -1], "value": [-1.6653345369377347e-17, 0.0002951076887689104, 0.00023516809034890285, 0.00017764168990241913, 0.00029269449079538656, 0.0004149868856089256, -0.0004426615331534073, -0.0008074875237182866, -7.783554258852798e-05]}, {"feature": [0, 0, 0, -2, -2, -2, 0, -2, -2], "threshold": [0.75, 0.6500000059604645, 0.550000011920929, -2.0, -2.0, -2.0, 0.8499999940395355, -2.0, -2.0], "children_left": [1, 2, 3, -1, -1, -1, 7, -1, -1], "children_right": [6, 5, 4, -1, -1, -1, 8, -1, -1], "value": [-2.4980018054066023e-17, 0.0002655969198920305, 0.000211651281314007, 0.00015987752091217722, 0.0002634250417158368, 0.00037348819704807745, -0.0003983953798381082, -0.0007267387713465467, -7.005198832966963e-05]}, {"feature": [0, 0, 0, -2, -2, -2, 0, -2, -2], "threshold": [0.75, 0.6500000059604645, 0.550000011920929, -2.0, -2.0, -2.0, 0.8499999940395355, -2.0, -2.0], "children_left": [1, 2, 3, -1, -1, -1, 7, -1, -1], "children_right": [6, 5, 4, -1, -1, -1, 8, -1, -1], "value": [-1.1102230246251566e-17, 0.00023903722790286075, 0.00019048615318262296, 0.0001438897688209595, 0.00023708253754428643, 0.0003361393773433363, -0.0003585558418543189, -0.0006540648942119365, -6.304678949670128e-05]}, {"feature": [0, 0, 0, -2, -2, -2, 0, -2, -2], "threshold": [0.75, 0.6500000059604645, 0.550000011920929, -2.0, -2.0, -2.0, 0.8499999940395355, -2.0, -2.0], "children_left": [1, 2, 3, -1, -1, -1, 7, -1, -1], "children_right": [6, 5, 4, -1, -1, -1, 8, -1, -1], "value": [-1.3877787807814457e-17, 0.00021513350511255988, 0.00017143753786436067, 0.00012950079193885244, 0.0002133742837898689, 0.0003025254396089583, -0.0003227002576688745, -0.0005886584047907206, -5.674211054702838e-05]}, {"feature": [0, 0, 0, -2, -2, -2, 0, -2, -2], "threshold": [0.75, 0.6500000059604645, 0.550000011920929, -2.0, -2.0, -2.0, 0.8499999940395355, -2.0, -2.0], "children_left": [1, 2, 3, -1, -1, -1, 7, -1, -1], "children_right": [6, 5, 4, -1, -1, -1, 8, -1, -1], "value": [-1.1102230246251566e-17, 0.0001936201546013372, 0.00015429378407794125, 0.0001165507127449672, 0.0001920368554109153, 0.00027227289564812907, -0.00029043023190203354, -0.0005297925643117374, -5.1067899492329705e-05]}, {"feature": [0, 0, 0, -2, -2, -2, 0, -2, -2], "threshold": [0.75, 0.6500000059604645, 0.550000011920929, -2.0, -2.0, -2.0, 0.8499999940395355, -2.0, -2.0], "children_left": [1, 2, 3, -1, -1, -1, 7, -1, -1], "children_right": [6, 5, 4, -1, -1, -1, 8, -1, -1], "value": [8.326672684688674e-18, 0.00017425813914121827, 0.00013886440567012492, 0.00010489564147042607, 0.00017283316986982378, 0.000245045606083405, -0.0002613872087118066, -0.00047681330788051923, -4.596110954309396e-05]}, {"feature": [0, 0, 0, -2, -2, -2, 0, -2, -2], "threshold": [0.75, 0.6500000059604645, 0.550000011920929, -2.0, -2.0, -2.0, 0.8499999940395355, -2.0, -2.0], "children_left": [1, 2, 3, -1, -1, -1, 7, -1, -1], "children_right": [6, 5, 4, -1, -1, -1, 8, -1, -1], "value": [-5.551115123125783e-18, 0.00015683232522704463, 0.00012497796510307912, 9.440607732336126e-05, 0.000155549852882797, 0.00022054104547497566, -0.00023524848784058083, -0.0004291319770923785, -4.1364998588783175e-05]}, {"feature": [0, 0, 0, -2, -2, -2, 0, -2, -2], "threshold": [0.75, 0.6500000059604645, 0.550000011920929, -2.0, -2.0, -2.0, 0.8499999940395355, -2.0, -2.0], "children_left": [1, 2, 3, -1, -1, -1, 7, -1, -1], "children_right": [6, 5, 4, -1, -1, -1, 8, -1, -1], "value": [1.9428902930940238e-17, 0.00014114909270435128, 0.00011248016859277676, 8.496546959102513e-05, 0.0001399948675945284, 0.0001984869409275003, -0.00021172363905647834, -0.0003862187793830518, -3.722849872990486e-05]}, {"feature": [0, 0, 0, -2, -2, -2, 0, -2, -2], "threshold": [0.75, 0.6500000059604645, 0.550000011920929, -2.0, -2.0, -2.0, 0.8499999940395355, -2.0, -2.0], "children_left": [1, 2, 3, -1, -1, -1, 7, -1, -1], "children_right": [6, 5, 4, -1, -1, -1, 8, -1, -1], "value": [-1.3877787807814457e-17, 0.00012703418343388653, 0.00010123215173346578, 7.646892263191152e-05, 0.00012599538083502004, 0.00017863824683472806, -0.0001905512751508645, -0.00034759690144481326, -3.350564885691576e-05]}, {"feature": [0, 0, 0, -2, -2, -2, 0, -2, -2], "threshold": [0.75, 0.6500000059604645, 0.550000011920929, -2.0, -2.0, -2.0, 0.8499999940395355, -2.0, -2.0], "children_left": [1, 2, 3, -1, -1, -1, 7, -1, -1], "children_right": [6, 5, 4, -1, -1, -1, 8, -1, -1], "value": [-2.7755575615628914e-17, 0.00011433076509048679, 9.110893656011365e-05, 6.882203036873147e-05, 0.00011339584275149583, 0.00016077442215123305, -0.00017149614763579957, -0.00031283721130037634, -3.0155083971222796e-05]}, {"feature": [0, 0, 0, -2, -2, -2, 0, -2, -2], "threshold": [0.75, 0.6500000059604645, 0.550000011920929, -2.0, -2.0, -2.0, 0.8499999940395355, -2.0, -2.0], "children_left": [1, 2, 3, -1, -1, -1, 7, -1, -1], "children_right": [6, 5, 4, -1, -1, -1, 8, -1, -1], "value": [-2.2204460492503132e-17, 0.00010289768858144181, 8.199804290409674e-05, 6.193982733182501e-05, 0.00010205625847636846, 0.00014469697993613195, -0.00015434653287221822, -0.0002815534901703387, -2.713957557409774e-05]}, {"feature": [0, 0, 0, -2, -2, -2, 0, -2, -2], "threshold": [0.75, 0.6500000059604645, 0.550000011920929, -2.0, -2.0, -2.0, 0.8499999940395355, -2.0, -2.0], "children_left": [1, 2, 3, -1, -1, -1, 7, -1, -1], "children_right": [6, 5, 4, -1, -1, -1, 8, -1, -1], "value": [1.1102230246251566e-17, 9.260791972331983e-05, 7.379823861369816e-05, 5.574584459866472e-05, 9.185063262873161e-05, 0.00013022728194256317, -0.000138911879584952, -0.000253398141153216, -2.4425618016687967e-05]}, {"feature": [0, 0, 0, -2, -2, -2, 0, -2, -2], "threshold": [0.75, 0.6500000059604645, 0.550000011920929, -2.0, -2.0, -2.0, 0.8499999940395355, -2.0, -2.0], "children_left": [1, 2, 3, -1, -1, -1, 7, -1, -1], "children_right": [6, 5, 4, -1, -1, -1, 8, -1, -1], "value": [2.7755575615628915e-18, 8.334712775100635e-05, 6.64184147523561e-05, 5.0171260138842655e-05, 8.266556936586955e-05, 0.00011720455374830685, -0.0001250206916265026, -0.00022805832703798323, -2.1983056215021946e-05]}, {"feature": [0, 0, 0, -2, -2, -2, 0, -2, -2], "threshold": [0.75, 0.6500000059604645, 0.550000011920929, -2.0, -2.0, -2.0, 0.8499999940395355, -2.0, -2.0], "children_left": [1, 2, 3, -1, -1, -1, 7, -1, -1], "children_right": [6, 5, 4, -1, -1, -1, 8, -1, -1], "value": [-5.551115123125783e-18, 7.501241497587241e-05, 5.977657327710384e-05, 4.5154134124980594e-05, 7.439901242922708e-05, 0.00010548409837340955, -0.00011251862246382249, -0.0002052524943341183, -1.978475059352669e-05]}, {"feature": [0, 0, 0, -2, -2, -2, 0, -2, -2], "threshold": [0.75, 0.6500000059604645, 0.550000011920929, -2.0, -2.0, -2.0, 0.8499999940395355, -2.0, -2.0], "children_left": [1, 2, 3, -1, -1, -1, 7, -1, -1], "children_right": [6, 5, 4, -1, -1, -1, 8, -1, -1], "value": [-2.4980018054066023e-17, 6.751117347825186e-05, 5.37989159493657e-05, 4.063872071247143e-05, 6.695911118625997e-05, 9.493568853602419e-05, -0.00010126676021744024, -0.00018472724490070647, -1.780627553417402e-05]}, {"feature": [0, 0, 0, -2, -2, -2, 0, -2, -2], "threshold": [0.75, 0.6500000059604645, 0.550000011920929, -2.0, -2.0, -2.0, 0.8499999940395355, -2.0, -2.0], "children_left": [1, 2, 3, -1, -1, -1, 7, -1, -1], "children_right": [6, 5, 4, -1, -1, -1, 8, -1, -1], "value": [2.2204460492503132e-17, 6.076005613050069e-05, 4.841902435448464e-05, 3.65748486412798e-05, 6.026320006768948e-05, 8.544211968253279e-05, -9.114008419569553e-05, -0.00016625452041063582, -1.602564798075523e-05]}, {"feature": [0, 0, 0, -2, -2, -2, 0, -2, -2], "threshold": [0.75, 0.6500000059604645, 0.550000011920929, -2.0, -2.0, -2.0, 0.8499999940395355, -2.0, -2.0], "children_left": [1, 2, 3, -1, -1, -1, 7, -1, -1], "children_right": [6, 5, 4, -1, -1, -1, 8, -1, -1], "value": [4.163336342344337e-17, 5.468405051748763e-05, 4.357712191904728e-05, 3.291736377719623e-05, 5.423688006089833e-05, 7.689790771436833e-05, -8.202607577612736e-05, -0.00014962906836957224, -1.4423083182682483e-05]}, {"feature": [0, 0, 0, -2, -2, -2, 0, -2, -2], "threshold": [0.75, 0.6500000059604645, 0.550000011920929, -2.0, -2.0, -2.0, 0.8499999940395355, -2.0, -2.0], "children_left": [1, 2, 3, -1, -1, -1, 7, -1, -1], "children_right": [6, 5, 4, -1, -1, -1, 8, -1, -1], "value": [2.7755575615628914e-17, 4.921564546574627e-05, 3.921940972717586e-05, 2.962562739949881e-05, 4.8813192054852905e-05, 6.920811694288709e-05, -7.382346819855001e-05, -0.00013466616153268163, -1.2980774864418398e-05]}, {"feature": [0, 0, 0, -2, -2, -2, 0, -2, -2], "threshold": [0.75, 0.6500000059604645, 0.550000011920929, -2.0, -2.0, -2.0, 0.8499999940395355, -2.0, -2.0], "children_left": [1, 2, 3, -1, -1, -1, 7, -1, -1], "children_right": [6, 5, 4, -1, -1, -1, 8, -1, -1], "value": [6.106226635438361e-17, 4.429408091921605e-05, 3.5297468754469374e-05, 2.666306465959334e-05, 4.393187284934541e-05, 6.22873052487094e-05, -6.644112137867142e-05, -0.00012119954537936906, -1.1682697377973783e-05]}, {"feature": [0, 0, 0, -2, -2, -2, 0, -2, -2], "threshold": [0.75, 0.6500000059604645, 0.550000011920929, -2.0, -2.0, -2.0, 0.8499999940395355, -2.0, -2.0], "children_left": [1, 2, 3, -1, -1, -1, 7, -1, -1], "children_right": [6, 5, 4, -1, -1, -1, 8, -1, -1], "value": [5.2735593669694933e-17, 3.986467282727594e-05, 3.1767721879016886e-05, 2.3996758193645107e-05, 3.9538685564388665e-05, 5.605857472379405e-05, -5.979700924078207e-05, -0.00010907959084138774, -1.0514427640176405e-05]}, {"feature": [0, 0, 0, -2, -2, -2, 0, -2, -2], "threshold": [0.75, 0.6500000059604645, 0.550000011920929, -2.0, -2.0, -2.0, 0.8499999940395355, -2.0, -2.0], "children_left": [1, 2, 3, -1, -1, -1, 7, -1, -1], "children_right": [6, 5, 4, -1, -1, -1, 8, -1, -1], "value": [4.163336342344337e-17, 3.587820554451504e-05, 2.8590949691098544e-05, 2.1597082374258392e-05, 3.5584817007938696e-05, 5.0452717251348034e-05, -5.381730831666848e-05, -9.817163175718235e-05, -9.462984876154601e-06]}, {"feature": [0, 0, 0, -2, -2, -2, 0, -2, -2], "threshold": [0.75, 0.6500000059604645, 0.550000011920929, -2.0, -2.0, -2.0, 0.8499999940395355, -2.0, -2.0], "children_left": [1, 2, 3, -1, -1, -1, 7, -1, -1], "children_right": [6, 5, 4, -1, -1, -1, 8, -1, -1], "value": [4.9960036108132046e-17, 3.229038499008574e-05, 2.573185472198869e-05, 1.9437374136788144e-05, 3.2026335307189235e-05, 4.5407445526279844e-05, -4.843557748500371e-05, -8.835446858146412e-05, -8.516686388543304e-06]}, {"feature": [0, 0, 0, -2, -2, -2, 0, -2, -2], "threshold": [0.75, 0.6500000059604645, 0.550000011920929, -2.0, -2.0, -2.0, 0.8499999940395355, -2.0, -2.0], "children_left": [1, 2, 3, -1, -1, -1, 7, -1, -1], "children_right": [6, 5, 4, -1, -1, -1, 8, -1, -1], "value": [5.2735593669694933e-17, 2.906134649109197e-05, 2.315866924978982e-05, 1.7493636723098227e-05, 2.8823701776481414e-05, 4.086670097369627e-05, -4.3592019736506116e-05, -7.95190217233177e-05, -7.665017749694525e-06]}, {"feature": [0, 0, 0, -2, -2, -2, 0, -2, -2], "threshold": [0.75, 0.6500000059604645, 0.550000011920929, -2.0, -2.0, -2.0, 0.8499999940395355, -2.0, -2.0], "children_left": [1, 2, 3, -1, -1, -1, 7, -1, -1], "children_right": [6, 5, 4, -1, -1, -1, 8, -1, -1], "value": [3.608224830031759e-17, 2.615521184197907e-05, 2.0842802324838594e-05, 1.5744273050843915e-05, 2.5941331598833273e-05, 3.678003087626003e-05, -3.92328177628784e-05, -7.156711955103034e-05, -6.89851597472646e-06]}, {"feature": [0, 0, 0, -2, -2, -2, 0, -2, -2], "threshold": [0.75, 0.6500000059604645, 0.550000011920929, -2.0, -2.0, -2.0, 0.8499999940395355, -2.0, -2.0], "children_left": [1, 2, 3, -1, -1, -1, 7, -1, -1], "children_right": [6, 5, 4, -1, -1, -1, 8, -1, -1], "value": [2.7755575615628914e-17, 2.3539690657788565e-05, 1.875852209237694e-05, 1.4169845745759524e-05, 2.3347198438994354e-05, 3.310202778861182e-05, -3.530953598661346e-05, -6.441040759597172e-05, -6.208664377255202e-06]}, {"feature": [0, 0, 0, -2, -2, -2, 0, -2, -2], "threshold": [0.75, 0.6500000059604645, 0.550000011920929, -2.0, -2.0, -2.0, 0.8499999940395355, -2.0, -2.0], "children_left": [1, 2, 3, -1, -1, -1, 7, -1, -1], "children_right": [6, 5, 4, -1, -1, -1, 8, -1, -1], "value": [5.2735593669694933e-17, 2.1185721592043016e-05, 1.6882669883144796e-05, 1.2752861171194674e-05, 2.101247859509492e-05, 2.9791825009839457e-05, -3.1778582387932686e-05, -5.796936683633014e-05, -5.587797939535233e-06]}]}, {"init": -0.12063180655241013, "trees": [{"feature": [0, 0, 0, -2, -2, -2, 0, -2, -2], "threshold": [0.75, 0.6500000059604645, 0.550000011920929, -2.0, -2.0, -2.0, 0.8499999940395355, -2.0, -2.0], "children_left": [1, 2, 3, -1, -1, -1, 7, -1, -1], "children_right": [6, 5, 4, -1, -1, -1, 8, -1, -1], "value": [0.0, -0.7212458724776903, -0.580962635576725, -0.47831983119249344, -0.6836054399609566, -1.0018123462796211, 1.0818688087165356, 1.9544582292437553, 0.2092793881893158]}, {"feature": [0, 0, 0, -2, -2, -2, 0, -2, -2], "threshold": [0.75, 0.6500000059604645, 0.550000011920929, -2.0, -2.0, -2.0, 0.8499999940395355, -2.0, -2.0], "children_left": [1, 2, 3, -1, -1, -1, 7, -1, -1], "children_right": [6, 5, 4, -1, -1, -1, 8, -1, -1], "value": [-3.3306690738754695e-17, -0.6491212852299214, -0.5228663720190525, -0.4304878480732441, -0.6152448959648609, -0.901631111651659, 0.973681927844882, 1.7590124063193797, 0.18835144937038423]}, {"feature": [0, 0, 0, -2, -2, -2, 0, -2, -2], "threshold": [0.75, 0.6500000059604645, 0.550000011920929, -2.0, -2.0, -2.0, 0.8499999940395355, -2.0, -2.0], "children_left": [1, 2, 3, -1, -1, -1, 7, -1, -1], "children_right": [6, 5, 4, -1, -1, -1, 8, -1, -1], "value": [-1.6653345369377347e-17, -0.5842091567069292, -0.47057973481714727, -0.3874390632659197, -0.5537204063683748, -0.8114680004864931, 0.8763137350603938, 1.5831111656874417, 0.16951630443334578]}, {"feature": [0, 0, 0, -2, -2, -2, 0, -2, -2], "threshold": [0.75, 0.6500000059604645, 0.550000011920929, -2.0, -2.0, -2.0, 0.8499999940395355, -2.0, -2.0], "children_left": [1, 2, 3, -1, -1, -1, 7, -1, -1], "children_right": [6, 5, 4, -1, -1, -1, 8, -1, -1], "value": [2.7755575615628914e-17, -0.5257882410362362, -0.4235217613354325, -0.34869515693932773, -0.49834836573153735, -0.7303212004378438, 0.7886823615543544, 1.4248000491186976, 0.1525646739900112]}, {"feature": [0, 0, 0, -2, -2, -2, 0, -2, -2], "threshold": [0.75, 0.6500000059604645, 0.550000011920929, -2.0, -2.0, -2.0, 0.8499999940395355, -2.0, -2.0], "children_left": [1, 2, 3, -1, -1, -1, 7, -1, -1], "children_right": [6, 5, 4, -1, -1, -1, 8, -1, -1], "value": [0.0, -0.47320941693261265, -0.38116958520188926, -0.31382564124539497, -0.4485135291583836, -0.6572890803940594, 0.709814125398919, 1.2823200442068279, 0.13730820659101006]}, {"feature": [0, 0, 0, -2, -2, -2, 0, -2, -2], "threshold": [0.75, 0.6500000059604645, 0.550000011920929, -2.0, -2.0, -2.0, 0.8499999940395355, -2.0, -2.0], "children_left": [1, 2, 3, -1, -1, -1, 7, -1, -1], "children_right": [6, 5, 4, -1, -1, -1, 8, -1, -1], "value": [2.7755575615628914e-17, -0.4258884752393513, -0.34305262668170033, -0.2824430771208555, -0.40366217624254525, -0.5915601723546534, 0.6388327128590271, 1.154088039786145, 0.12357738593190906]}, {"feature": [0, 0, 0, -2, -2, -2, 0, -2, -2], "threshold": [0.75, 0.6500000059604645, 0.550000011920929, -2.0, -2.0, -2.0, 0.8499999940395355, -2.0, -2.0], "children_left": [1, 2, 3, -1, -1, -1, 7, -1, -1], "children_right": [6, 5, 4, -1, -1, -1, 8, -1, -1], "value": [5.551115123125783e-18, -0.3832996277154162, -0.3087473640135303, -0.25419876940876995, -0.3632959586182907, -0.532404155119188, 0.5749494415731243, 1.0386792358075305, 0.11121964733871817]}, {"feature": [0, 0, 0, -2, -2, -2, 0, -2, -2], "threshold": [0.75, 0.6500000059604645, 0.550000011920929, -2.0, -2.0, -2.0, 0.8499999940395355, -2.0, -2.0], "children_left": [1, 2, 3, -1, -1, -1, 7, -1, -1], "children_right": [6, 5, 4, -1, -1, -1, 8, -1, -1], "value": [-1.3877787807814457e-17, -0.34496966494387465, -0.2778726276121773, -0.22877889246789296, -0.3269663627564616, -0.4791637396072692, 0.517454497415812, 0.9348113122267775, 0.10009768260484635]}, {"feature": [0, 0, 0, -2, -2, -2, 0, -2, -2], "threshold": [0.75, 0.6500000059604645, 0.550000011920929, -2.0, -2.0, -2.0, 0.8499999940395355, -2.0, -2.0], "children_left": [1, 2, 3, -1, -1, -1, 7, -1, -1], "children_right": [6, 5, 4, -1, -1, -1, 8, -1, -1], "value": [2.7755575615628915e-18, -0.31047269844948716, -0.25008536485095956, -0.20590100322110366, -0.2942697264808155, -0.4312473656465423, 0.4657090476742307, 0.8413301810040997, 0.09008791434436171]}, {"feature": [0, 0, 0, -2, -2, -2, 0, -2, -2], "threshold": [0.75, 0.6500000059604645, 0.550000011920929, -2.0, -2.0, -2.0, 0.8499999940395355, -2.0, -2.0], "children_left": [1, 2, 3, -1, -1, -1, 7, -1, -1], "children_right": [6, 5, 4, -1, -1, -1, 8, -1, -1], "value": [-8.326672684688674e-18, -0.27942542860453845, -0.22507682836586362, -0.18531090289899332, -0.2648427538327339, -0.3881226290818881, 0.4191381429068077, 0.7571971629036898, 0.08107912290992554]}, {"feature": [0, 0, 0, -2, -2, -2, 0, -2, -2], "threshold": [0.75, 0.6500000059604645, 0.550000011920929, -2.0, -2.0, -2.0, 0.8499999940395355, -2.0, -2.0], "children_left": [1, 2, 3, -1, -1, -1, 7, -1, -1], "children_right": [6, 5, 4, -1, -1, -1, 8, -1, -1], "value": [2.4980018054066023e-17, -0.25148288574408456, -0.20256914552927727, -0.16677981260909397, -0.23835847844946056, -0.34931036617369926, 0.3772243286161269, 0.6814774466133209, 0.07297121061893298]}, {"feature": [0, 0, 0, -2, -2, -2, 0, -2, -2], "threshold": [0.75, 0.6500000059604645, 0.550000011920929, -2.0, -2.0, -2.0, 0.8499999940395355, -2.0, -2.0], "children_left": [1, 2, 3, -1, -1, -1, 7, -1, -1], "children_right": [6, 5, 4, -1, -1, -1, 8, -1, -1], "value": [2.2204460492503132e-17, -0.2263345971696761, -0.18231223097634952, -0.15010183134818456, -0.21452263060451449, -0.3143793295563293, 0.3395018957545142, 0.6133297019519888, 0.06567408955703968]}, {"feature": [0, 0, 0, -2, -2, -2, 0, -2, -2], "threshold": [0.75, 0.6500000059604645, 0.550000011920929, -2.0, -2.0, -2.0, 0.8499999940395355, -2.0, -2.0], "children_left": [1, 2, 3, -1, -1, -1, 7, -1, -1], "children_right": [6, 5, 4, -1, -1, -1, 8, -1, -1], "value": [1.9428902930940238e-17, -0.20370113745270854, -0.16408100787871457, -0.1350916482133661, -0.19307036754406304, -0.2829413966006964, 0.30555170617906285, 0.55199673175679, 0.05910668060133571]}, {"feature": [0, 0, 0, -2, -2, -2, 0, -2, -2], "threshold": [0.75, 0.6500000059604645, 0.550000011920929, -2.0, -2.0, -2.0, 0.8499999940395355, -2.0, -2.0], "children_left": [1, 2, 3, -1, -1, -1, 7, -1, -1], "children_right": [6, 5, 4, -1, -1, -1, 8, -1, -1], "value": [3.191891195797325e-17, -0.18333102370743767, -0.14767290709084313, -0.12158248339202948, -0.17376333078965678, -0.25464725694062673, 0.27499653556115655, 0.496797058581111, 0.053196012541202146]}, {"feature": [0, 0, 0, -2, -2, -2, 0, -2, -2], "threshold": [0.75, 0.6500000059604645, 0.550000011920929, -2.0, -2.0, -2.0, 0.8499999940395355, -2.0, -2.0], "children_left": [1, 2, 3, -1, -1, -1, 7, -1, -1], "children_right": [6, 5, 4, -1, -1, -1, 8, -1, -1], "value": [2.4980018054066023e-17, -0.16499792133669391, -0.13290561638175882, -0.10942423505282656, -0.1563869977106911, -0.22918253124656407, 0.2474968820050409, 0.4471173527229999, 0.047876411287081935]}, {"feature": [0, 0, 0, -2, -2, -2, 0, -2, -2], "threshold": [0.75, 0.6500000059604645, 0.550000011920929, -2.0, -2.0, -2.0, 0.8499999940395355, -2.0, -2.0], "children_left": [1, 2, 3, -1, -1, -1, 7, -1, -1], "children_right": [6, 5, 4, -1, -1, -1, 8, -1, -1], "value": [1.9428902930940238e-17, -0.1484981292030245, -0.11961505474358292, -0.09848181154754387, -0.14074829793962196, -0.20626427812190762, 0.22274719380453678, 0.4024056174506998, 0.04308877015837374]}, {"feature": [0, 0, 0, -2, -2, -2, 0, -2, -2], "threshold": [0.75, 0.6500000059604645, 0.550000011920929, -2.0, -2.0, -2.0, 0.8499999940395355, -2.0, -2.0], "children_left": [1, 2, 3, -1, -1, -1, 7, -1, -1], "children_right": [6, 5, 4, -1, -1, -1, 8, -1, -1], "value": [-2.7755575615628915e-18, -0.13364831628272203, -0.1076535492692246, -0.08863363039278949, -0.12667346814565972, -0.1856378503097169, 0.20047247442408306, 0.36216505570562973, 0.03877989314253637]}, {"feature": [0, 0, 0, -2, -2, -2, 0, -2, -2], "threshold": [0.75, 0.6500000059604645, 0.550000011920929, -2.0, -2.0, -2.0, 0.8499999940395355, -2.0, -2.0], "children_left": [1, 2, 3, -1, -1, -1, 7, -1, -1], "children_right": [6, 5, 4, -1, -1, -1, 8, -1, -1], "value": [-2.2204460492503132e-17, -0.12028348465444987, -0.09688819434230217, -0.07977026735351056, -0.11400612133109378, -0.16707406527874524, 0.18042522698167474, 0.32594855013506674, 0.03490190382828273]}, {"feature": [0, 0, 0, -2, -2, -2, 0, -2, -2], "threshold": [0.75, 0.6500000059604645, 0.550000011920929, -2.0, -2.0, -2.0, 0.8499999940395355, -2.0, -2.0], "children_left": [1, 2, 3, -1, -1, -1, 7, -1, -1], "children_right": [6, 5, 4, -1, -1, -1, 8, -1, -1], "value": [-2.2204460492503132e-17, -0.10825513618900488, -0.08719937490807195, -0.0717932406181595, -0.10260550919798439, -0.15036665875087074, 0.16238270428350726, 0.29335369512156007, 0.03141171344545446]}, {"feature": [0, 0, 0, -2, -2, -2, 0, -2, -2], "threshold": [0.75, 0.6500000059604645, 0.550000011920929, -2.0, -2.0, -2.0, 0.8499999940395355, -2.0, -2.0], "children_left": [1, 2, 3, -1, -1, -1, 7, -1, -1], "children_right": [6, 5, 4, -1, -1, -1, 8, -1, -1], "value": [-1.1102230246251566e-17, -0.09742962257010435, -0.07847943741726471, -0.06461391655634352, -0.0923449582781859, -0.13532999287578362, 0.1461444338551565, 0.26401832560940397, 0.028270542100909013]}, {"feature": [0, 0, 0, -2, -2, -2, 0, -2, -2], "threshold": [0.75, 0.6500000059604645, 0.550000011920929, -2.0, -2.0, -2.0, 0.8499999940395355, -2.0, -2.0], "children_left": [1, 2, 3, -1, -1, -1, 7, -1, -1], "children_right": [6, 5, 4, -1, -1, -1, 8, -1, -1], "value": [-1.3877787807814457e-17, -0.08768666031309395, -0.07063149367553828, -0.05815252490070921, -0.08311046245036735, -0.12179699358820528, 0.1315299904696409, 0.23761649304846366, 0.025443487890818114]}, {"feature": [0, 0, 0, -2, -2, -2, 0, -2, -2], "threshold": [0.75, 0.6500000059604645, 0.550000011920929, -2.0, -2.0, -2.0, 0.8499999940395355, -2.0, -2.0], "children_left": [1, 2, 3, -1, -1, -1, 7, -1, -1], "children_right": [6, 5, 4, -1, -1, -1, 8, -1, -1], "value": [-3.3306690738754695e-17, -0.07891799428178455, -0.06356834430798447, -0.05233727241063835, -0.0747994162053306, -0.10961729422938471, 0.11837699142267674, 0.21385484374361718, 0.0228991391017363]}, {"feature": [0, 0, 0, -2, -2, -2, 0, -2, -2], "threshold": [0.75, 0.6500000059604645, 0.550000011920929, -2.0, -2.0, -2.0, 0.8499999940395355, -2.0, -2.0], "children_left": [1, 2, 3, -1, -1, -1, 7, -1, -1], "children_right": [6, 5, 4, -1, -1, -1, 8, -1, -1], "value": [-3.3306690738754695e-17, -0.0710261948536061, -0.05721150987718604, -0.04710354516957449, -0.06731947458479759, -0.09865556480644622, 0.10653929228040906, 0.19246935936925547, 0.020609225191562663]}, {"feature": [0, 0, 0, -2, -2, -2, 0, -2, -2], "threshold": [0.75, 0.6500000059604645, 0.550000011920929, -2.0, -2.0, -2.0, 0.8499999940395355, -2.0, -2.0], "children_left": [1, 2, 3, -1, -1, -1, 7, -1, -1], "children_right": [6, 5, 4, -1, -1, -1, 8, -1, -1], "value": [-3.8857805861880476e-17, -0.06392357536824549, -0.05149035888946746, -0.04239319065261704, -0.060587527126317875, -0.08879000832580153, 0.09588536305236812, 0.17322242343232985, 0.018548302672406397]}, {"feature": [0, 0, 0, -2, -2, -2, 0, -2, -2], "threshold": [0.75, 0.6500000059604645, 0.550000011920929, -2.0, -2.0, -2.0, 0.8499999940395355, -2.0, -2.0], "children_left": [1, 2, 3, -1, -1, -1, 7, -1, -1], "children_right": [6, 5, 4, -1, -1, -1, 8, -1, -1], "value": [-1.3877787807814457e-17, -0.057531217831420935, -0.046341323000520684, -0.03815387158735528, -0.05452877441368609, -0.07991100749322144, 0.08629682674713138, 0.15590018108909698, 0.016693472405165763]}, {"feature": [0, 0, 0, -2, -2, -2, 0, -2, -2], "threshold": [0.75, 0.6500000059604645, 0.550000011920929, -2.0, -2.0, -2.0, 0.8499999940395355, -2.0, -2.0], "children_left": [1, 2, 3, -1, -1, -1, 7, -1, -1], "children_right": [6, 5, 4, -1, -1, -1, 8, -1, -1], "value": [-3.3306690738754695e-17, -0.05177809604827888, -0.04170719070046863, -0.03433848442861975, -0.04907589697231751, -0.07191990674389936, 0.07766714407241823, 0.14031016298018728, 0.015024125164649182]}, {"feature": [0, 0, 0, -2, -2, -2, 0, -2, -2], "threshold": [0.75, 0.6500000059604645, 0.550000011920929, -2.0, -2.0, -2.0, 0.8499999940395355, -2.0, -2.0], "children_left": [1, 2, 3, -1, -1, -1, 7, -1, -1], "children_right": [6, 5, 4, -1, -1, -1, 8, -1, -1], "value": [-4.163336342344337e-17, -0.04660028644345097, -0.037536471630421786, -0.030904635985757767, -0.044168307275085805, -0.06472791606950934, 0.06990042966517634, 0.12627914668216844, 0.013521712648184261]}, {"feature": [0, 0, 0, -2, -2, -2, 0, -2, -2], "threshold": [0.75, 0.6500000059604645, 0.550000011920929, -2.0, -2.0, -2.0, 0.8499999940395355, -2.0, -2.0], "children_left": [1, 2, 3, -1, -1, -1, 7, -1, -1], "children_right": [6, 5, 4, -1, -1, -1, 8, -1, -1], "value": [-5.828670879282072e-17, -0.041940257799105894, -0.033782824467379624, -0.02781417238718198, -0.03975147654757727, -0.05825512446255843, 0.0629103866986587, 0.11365123201395155, 0.012169541383365831]}, {"feature": [0, 0, 0, -2, -2, -2, 0, -2, -2], "threshold": [0.75, 0.6500000059604645, 0.550000011920929, -2.0, -2.0, -2.0, 0.8499999940395355, -2.0, -2.0], "children_left": [1, 2, 3, -1, -1, -1, 7, -1, -1], "children_right": [6, 5, 4, -1, -1, -1, 8, -1, -1], "value": [-6.38378239159465e-17, -0.037746232019195324, -0.03040454202064169, -0.025032755148463814, -0.035776328892819564, -0.052429612016302585, 0.05661934802879282, 0.1022861088125564, 0.010952587245029247]}, {"feature": [0, 0, 0, -2, -2, -2, 0, -2, -2], "threshold": [0.75, 0.6500000059604645, 0.550000011920929, -2.0, -2.0, -2.0, 0.8499999940395355, -2.0, -2.0], "children_left": [1, 2, 3, -1, -1, -1, 7, -1, -1], "children_right": [6, 5, 4, -1, -1, -1, 8, -1, -1], "value": [-7.216449660063518e-17, -0.03397160881727579, -0.02736408781857752, -0.0225294796336174, -0.03219869600353764, -0.047186650814672326, 0.0509574132259135, 0.09205749793130069, 0.009857328520526315]}, {"feature": [0, 0, 0, -2, -2, -2, 0, -2, -2], "threshold": [0.75, 0.6500000059604645, 0.550000011920929, -2.0, -2.0, -2.0, 0.8499999940395355, -2.0, -2.0], "children_left": [1, 2, 3, -1, -1, -1, 7, -1, -1], "children_right": [6, 5, 4, -1, -1, -1, 8, -1, -1], "value": [-7.494005416219807e-17, -0.0305744479355482, -0.024627679036719752, -0.02027653167025567, -0.028978826403183833, -0.042467985733205094, 0.04586167190332211, 0.08285174813817053, 0.008871595668473689]}, {"feature": [0, 0, 0, -2, -2, -2, 0, -2, -2], "threshold": [0.75, 0.6500000059604645, 0.550000011920929, -2.0, -2.0, -2.0, 0.8499999940395355, -2.0, -2.0], "children_left": [1, 2, 3, -1, -1, -1, 7, -1, -1], "children_right": [6, 5, 4, -1, -1, -1, 8, -1, -1], "value": [-5.2735593669694933e-17, -0.027517003141993346, -0.02216491113304775, -0.018248878503230093, -0.026080943762865405, -0.03822118715988454, 0.04127550471298989, 0.07456657332435346, 0.007984436101626316]}, {"feature": [0, 0, 0, -2, -2, -2, 0, -2, -2], "threshold": [0.75, 0.6500000059604645, 0.550000011920929, -2.0, -2.0, -2.0, 0.8499999940395355, -2.0, -2.0], "children_left": [1, 2, 3, -1, -1, -1, 7, -1, -1], "children_right": [6, 5, 4, -1, -1, -1, 8, -1, -1], "value": [-6.661338147750939e-17, -0.024765302827794062, -0.019948420019743007, -0.016423990652907117, -0.023472849386578898, -0.034399068443896175, 0.03714795424169093, 0.06710991599191818, 0.0071859924914636775]}, {"feature": [0, 0, 0, -2, -2, -2, 0, -2, -2], "threshold": [0.75, 0.6500000059604645, 0.550000011920929, -2.0, -2.0, -2.0, 0.8499999940395355, -2.0, -2.0], "children_left": [1, 2, 3, -1, -1, -1, 7, -1, -1], "children_right": [6, 5, 4, -1, -1, -1, 8, -1, -1], "value": [-8.049116928532385e-17, -0.022288772545014674, -0.0179535780177687, -0.014781591587616383, -0.02112556444792102, -0.030959161599506624, 0.03343315881752181, 0.060398924392726316, 0.006467393242317307]}, {"feature": [0, 0, 0, -2, -2, -2, 0, -2, -2], "threshold": [0.75, 0.6500000059604645, 0.550000011920929, -2.0, -2.0, -2.0, 0.8499999940395355, -2.0, -2.0], "children_left": [1, 2, 3, -1, -1, -1, 7, -1, -1], "children_right": [6, 5, 4, -1, -1, -1, 8, -1, -1], "value": [-7.494005416219807e-17, -0.02005989529051322, -0.016158220215991836, -0.013303432428854789, -0.019013008003128884, -0.027863245439555984, 0.03008984293576964, 0.05435903195345371, 0.005820653918085575]}, {"feature": [0, 0, 0, -2, -2, -2, 0, -2, -2], "threshold": [0.75, 0.6500000059604645, 0.550000011920929, -2.0, -2.0, -2.0, 0.8499999940395355, -2.0, -2.0], "children_left": [1, 2, 3, -1, -1, -1, 7, -1, -1], "children_right": [6, 5, 4, -1, -1, -1, 8, -1, -1], "value": [-2.2204460492503132e-17, -0.018053905761461857, -0.014542398194392625, -0.011973089185969288, -0.017111707202815962, -0.02507692089560032, 0.02708085864219273, 0.04892312875810845, 0.0052385885262770104]}, {"feature": [0, 0, 0, -2, -2, -2, 0, -2, -2], "threshold": [0.75, 0.6500000059604645, 0.550000011920929, -2.0, -2.0, -2.0, 0.8499999940395355, -2.0, -2.0], "children_left": [1, 2, 3, -1, -1, -1, 7, -1, -1], "children_right": [6, 5, 4, -1, -1, -1, 8, -1, -1], "value": [-1.6653345369377347e-17, -0.016248515185315632, -0.013088158374953363, -0.010775780267372359, -0.015400536482534366, -0.022569228806040176, 0.02437277277797341, 0.044030815882297514, 0.004714729673649304]}, {"feature": [0, 0, 0, -2, -2, -2, 0, -2, -2], "threshold": [0.75, 0.6500000059604645, 0.550000011920929, -2.0, -2.0, -2.0, 0.8499999940395355, -2.0, -2.0], "children_left": [1, 2, 3, -1, -1, -1, 7, -1, -1], "children_right": [6, 5, 4, -1, -1, -1, 8, -1, -1], "value": [-1.3877787807814457e-17, -0.0146236636667841, -0.011779342537458048, -0.009698202240635112, -0.013860482834280985, -0.020312305925436203, 0.021935495500176115, 0.03962773429406785, 0.004243256706284379]}, {"feature": [0, 0, 0, -2, -2, -2, 0, -2, -2], "threshold": [0.75, 0.6500000059604645, 0.550000011920929, -2.0, -2.0, -2.0, 0.8499999940395355, -2.0, -2.0], "children_left": [1, 2, 3, -1, -1, -1, 7, -1, -1], "children_right": [6, 5, 4, -1, -1, -1, 8, -1, -1], "value": [1.1102230246251566e-17, -0.01316129730010566, -0.0106014082837122, -0.008728382016571556, -0.012474434550852842, -0.018281075332892582, 0.019741945950158518, 0.03566496086466109, 0.003818931035655948]}, {"feature": [0, 0, 0, -2, -2, -2, 0, -2, -2], "threshold": [0.75, 0.6500000059604645, 0.550000011920929, -2.0, -2.0, -2.0, 0.8499999940395355, -2.0, -2.0], "children_left": [1, 2, 3, -1, -1, -1, 7, -1, -1], "children_right": [6, 5, 4, -1, -1, -1, 8, -1, -1], "value": [3.8857805861880476e-17, -0.011845167570095053, -0.009541267455340952, -0.007855543814914379, -0.011226991095767525, -0.016452967799603258, 0.017767751355142677, 0.032098464778195, 0.0034370379320903532]}, {"feature": [0, 0, 0, -2, -2, -2, 0, -2, -2], "threshold": [0.75, 0.6500000059604645, 0.550000011920929, -2.0, -2.0, -2.0, 0.8499999940395355, -2.0, -2.0], "children_left": [1, 2, 3, -1, -1, -1, 7, -1, -1], "children_right": [6, 5, 4, -1, -1, -1, 8, -1, -1], "value": [3.608224830031759e-17, -0.010660650813085574, -0.008587140709806873, -0.007069989433422963, -0.010104291986190783, -0.014807671019642976, 0.01599097621962845, 0.02888861830037559, 0.0030933341388813124]}, {"feature": [0, 0, 0, -2, -2, -2, 0, -2, -2], "threshold": [0.75, 0.6500000059604645, 0.550000011920929, -2.0, -2.0, -2.0, 0.8499999940395355, -2.0, -2.0], "children_left": [1, 2, 3, -1, -1, -1, 7, -1, -1], "children_right": [6, 5, 4, -1, -1, -1, 8, -1, -1], "value": [2.2204460492503132e-17, -0.009594585731777036, -0.007728426638826225, -0.006362990490080711, -0.009093862787571738, -0.013326903917678656, 0.014391878597665608, 0.02599975647033803, 0.0027840007249931853]}, {"feature": [0, 0, 0, -2, -2, -2, 0, -2, -2], "threshold": [0.75, 0.6500000059604645, 0.550000011920929, -2.0, -2.0, -2.0, 0.8499999940395355, -2.0, -2.0], "children_left": [1, 2, 3, -1, -1, -1, 7, -1, -1], "children_right": [6, 5, 4, -1, -1, -1, 8, -1, -1], "value": [5.551115123125783e-18, -0.00863512715859934, -0.006955583974943613, -0.005726691441072629, -0.008184476508814598, -0.01199421352591079, 0.012952690737899022, 0.023399780823304184, 0.002505600652493861]}, {"feature": [0, 0, 0, -2, -2, -2, 0, -2, -2], "threshold": [0.75, 0.6500000059604645, 0.550000011920929, -2.0, -2.0, -2.0, 0.8499999940395355, -2.0, -2.0], "children_left": [1, 2, 3, -1, -1, -1, 7, -1, -1], "children_right": [6, 5, 4, -1, -1, -1, 8, -1, -1], "value": [2.7755575615628915e-18, -0.0077716144427394385, -0.0062600255774492575, -0.005154022296965377, -0.007366028857933138, -0.0107947921733198, 0.011657421664109165, 0.021059802740973854, 0.002255040587244475]}, {"feature": [0, 0, 0, -2, -2, -2, 0, -2, -2], "threshold": [0.75, 0.6500000059604645, 0.550000011920929, -2.0, -2.0, -2.0, 0.8499999940395355, -2.0, -2.0], "children_left": [1, 2, 3, -1, -1, -1, 7, -1, -1], "children_right": [6, 5, 4, -1, -1, -1, 8, -1, -1], "value": [2.7755575615628914e-17, -0.006994452998465424, -0.005634023019704282, -0.004638620067268784, -0.00662942597213978, -0.00971531295598771, 0.010491679497698206, 0.01895382246687638, 0.0020295365285200317]}, {"feature": [0, 0, 0, -2, -2, -2, 0, -2, -2], "threshold": [0.75, 0.6500000059604645, 0.550000011920929, -2.0, -2.0, -2.0, 0.8499999940395355, -2.0, -2.0], "children_left": [1, 2, 3, -1, -1, -1, 7, -1, -1], "children_right": [6, 5, 4, -1, -1, -1, 8, -1, -1], "value": [1.6653345369377347e-17, -0.006295007698618904, -0.0050706207177338425, -0.0041747580605419055, -0.0059664833749257795, -0.008743781660389027, 0.009442511547928398, 0.017058440220188764, 0.0018265828756680313]}, {"feature": [0, 0, 0, -2, -2, -2, 0, -2, -2], "threshold": [0.75, 0.6500000059604645, 0.550000011920929, -2.0, -2.0, -2.0, 0.8499999940395355, -2.0, -2.0], "children_left": [1, 2, 3, -1, -1, -1, 7, -1, -1], "children_right": [6, 5, 4, -1, -1, -1, 8, -1, -1], "value": [6.106226635438361e-17, -0.005665506928756965, -0.004563558645960419, -0.0037572822544876816, -0.005369835037433157, -0.007869403494350058, 0.008498260393135601, 0.015352596198169977, 0.0016439245881012254]}, {"feature": [0, 0, 0, -2, -2, -2, 0, -2, -2], "threshold": [0.75, 0.6500000059604645, 0.550000011920929, -2.0, -2.0, -2.0, 0.8499999940395355, -2.0, -2.0], "children_left": [1, 2, 3, -1, -1, -1, 7, -1, -1], "children_right": [6, 5, 4, -1, -1, -1, 8, -1, -1], "value": [2.4980018054066023e-17, -0.005098956235881302, -0.004107202781364394, -0.0033815540290389468, -0.0048328515336898414, -0.007082463144915119, 0.007648434353822016, 0.013817336578352934, 0.0014795321292910973]}, {"feature": [0, 0, 0, -2, -2, -2, 0, -2, -2], "threshold": [0.75, 0.6500000059604645, 0.550000011920929, -2.0, -2.0, -2.0, 0.8499999940395355, -2.0, -2.0], "children_left": [1, 2, 3, -1, -1, -1, 7, -1, -1], "children_right": [6, 5, 4, -1, -1, -1, 8, -1, -1], "value": [7.771561172376095e-17, -0.0045890606122931015, -0.0036964825032279047, -0.0030433986261350077, -0.004349566380320802, -0.006374216830423496, 0.006883590918439847, 0.012435602920517708, 0.0013315789163619862]}, {"feature": [0, 0, 0, -2, -2, -2, 0, -2, -2], "threshold": [0.75, 0.6500000059604645, 0.550000011920929, -2.0, -2.0, -2.0, 0.8499999940395355, -2.0, -2.0], "children_left": [1, 2, 3, -1, -1, -1, 7, -1, -1], "children_right": [6, 5, 4, -1, -1, -1, 8, -1, -1], "value": [4.4408920985006264e-17, -0.00413015455106384, -0.003326834252905142, -0.00273905876352154, -0.003914609742288744, -0.005736795147381235, 0.006195231826595871, 0.011192042628465959, 0.001198421024725782]}, {"feature": [0, 0, 0, -2, -2, -2, 0, -2, -2], "threshold": [0.75, 0.6500000059604645, 0.550000011920929, -2.0, -2.0, -2.0, 0.8499999940395355, -2.0, -2.0], "children_left": [1, 2, 3, -1, -1, -1, 7, -1, -1], "children_right": [6, 5, 4, -1, -1, -1, 8, -1, -1], "value": [7.494005416219807e-17, -0.003717139095957426, -0.0029941508276146167, -0.0024651528871694195, -0.003523148768059814, -0.005163115632643045, 0.0055757086439363265, 0.010072838365619452, 0.001078578922253201]}, {"feature": [0, 0, 0, -2, -2, -2, 0, -2, -2], "threshold": [0.75, 0.6500000059604645, 0.550000011920929, -2.0, -2.0, -2.0, 0.8499999940395355, -2.0, -2.0], "children_left": [1, 2, 3, -1, -1, -1, 7, -1, -1], "children_right": [6, 5, 4, -1, -1, -1, 8, -1, -1], "value": [3.3306690738754695e-17, -0.003345425186361717, -0.002694735744853183, -0.002218637598452533, -0.0031708338912538325, -0.004646804069378785, 0.0050181377795426585, 0.00906555452905744, 0.0009707210300278768]}, {"feature": [0, 0, 0, -2, -2, -2, 0, -2, -2], "threshold": [0.75, 0.6500000059604645, 0.550000011920929, -2.0, -2.0, -2.0, 0.8499999940395355, -2.0, -2.0], "children_left": [1, 2, 3, -1, -1, -1, 7, -1, -1], "children_right": [6, 5, 4, -1, -1, -1, 8, -1, -1], "value": [3.608224830031759e-17, -0.003010882667725534, -0.00242526217036787, -0.001996773838607302, -0.002853750502128438, -0.004182123662440862, 0.004516324001588391, 0.008158999076151696, 0.0008736489270250863]}, {"feature": [0, 0, 0, -2, -2, -2, 0, -2, -2], "threshold": [0.75, 0.6500000059604645, 0.550000011920929, -2.0, -2.0, -2.0, 0.8499999940395355, -2.0, -2.0], "children_left": [1, 2, 3, -1, -1, -1, 7, -1, -1], "children_right": [6, 5, 4, -1, -1, -1, 8, -1, -1], "value": [6.661338147750939e-17, -0.0027097944009529438, -0.002182735953331072, -0.0017970964547465718, -0.002568375451915572, -0.003763911296196687, 0.004064691601429582, 0.007343099168536593, 0.0007862840343225708]}, {"feature": [0, 0, 0, -2, -2, -2, 0, -2, -2], "threshold": [0.75, 0.6500000059604645, 0.550000011920929, -2.0, -2.0, -2.0, 0.8499999940395355, -2.0, -2.0], "children_left": [1, 2, 3, -1, -1, -1, 7, -1, -1], "children_right": [6, 5, 4, -1, -1, -1, 8, -1, -1], "value": [5.551115123125783e-17, -0.002438814960857627, -0.0019644623579979648, -0.0016173868092719257, -0.002311537906724004, -0.0033875201665769517, 0.0036582224412865794, 0.006608789251682845, 0.0007076556308903137]}, {"feature": [0, 0, 0, -2, -2, -2, 0, -2, -2], "threshold": [0.75, 0.6500000059604645, 0.550000011920929, -2.0, -2.0, -2.0, 0.8499999940395355, -2.0, -2.0], "children_left": [1, 2, 3, -1, -1, -1, 7, -1, -1], "children_right": [6, 5, 4, -1, -1, -1, 8, -1, -1], "value": [5.828670879282072e-17, -0.002194933464771842, -0.0017680161221981794, -0.0014556481283447553, -0.0020803841160516034, -0.0030487681499191677, 0.003292400197157909, 0.005947910326514538, 0.0006368900678012795]}, {"feature": [0, 0, 0, -2, -2, -2, 0, -2, -2], "threshold": [0.75, 0.6500000059604645, 0.550000011920929, -2.0, -2.0, -2.0, 0.8499999940395355, -2.0, -2.0], "children_left": [1, 2, 3, -1, -1, -1, 7, -1, -1], "children_right": [6, 5, 4, -1, -1, -1, 8, -1, -1], "value": [3.3306690738754695e-17, -0.001975440118294721, -0.0015912145099784003, -0.001310083315510302, -0.0018723457044464986, -0.002743891334927362, 0.0029631601774421645, 0.005353119293863173, 0.0005732010610211558]}, {"feature": [0, 0, 0, -2, -2, -2, 0, -2, -2], "threshold": [0.75, 0.6500000059604645, 0.550000011920929, -2.0, -2.0, -2.0, 0.8499999940395355, -2.0, -2.0], "children_left": [1, 2, 3, -1, -1, -1, 7, -1, -1], "children_right": [6, 5, 4, -1, -1, -1, 8, -1, -1], "value": [1.9428902930940238e-17, -0.001777896106465282, -0.0014320930589805658, -0.001179074983959305, -0.0016851111340018265, -0.0024695022014347146, 0.0026668441596979717, 0.0048178073644769, 0.000515880954919043]}, {"feature": [0, 0, 0, -2, -2, -2, 0, -2, -2], "threshold": [0.75, 0.6500000059604645, 0.550000011920929, -2.0, -2.0, -2.0, 0.8499999940395355, -2.0, -2.0], "children_left": [1, 2, 3, -1, -1, -1, 7, -1, -1], "children_right": [6, 5, 4, -1, -1, -1, 8, -1, -1], "value": [1.6653345369377347e-17, -0.001600106495818765, -0.0012888837530825037, -0.0010611674855633968, -0.0015166000206016106, -0.0022225519812912875, 0.002400159743728189, 0.0043360266280292326, 0.0004642928594271456]}, {"feature": [0, 0, 0, -2, -2, -2, 0, -2, -2], "threshold": [0.75, 0.6500000059604645, 0.550000011920929, -2.0, -2.0, -2.0, 0.8499999940395355, -2.0, -2.0], "children_left": [1, 2, 3, -1, -1, -1, 7, -1, -1], "children_right": [6, 5, 4, -1, -1, -1, 8, -1, -1], "value": [-1.3877787807814457e-17, -0.001440095846236944, -0.001159995377774281, -0.0009550507370070793, -0.0013649400185414828, -0.0020002967831622698, 0.0021601437693553813, 0.0039024239652263315, 0.00041786357348443104]}, {"feature": [0, 0, 0, -2, -2, -2, 0, -2, -2], "threshold": [0.75, 0.6500000059604645, 0.550000011920929, -2.0, -2.0, -2.0, 0.8499999940395355, -2.0, -2.0], "children_left": [1, 2, 3, -1, -1, -1, 7, -1, -1], "children_right": [6, 5, 4, -1, -1, -1, 8, -1, -1], "value": [2.7755575615628915e-18, -0.0012960862616132607, -0.0010439958399968696, -0.0008595456633063714, -0.0012284460166873679, -0.0018002671048460428, 0.001944129392419898, 0.0035121815687038094, 0.00037607721613598655]}, {"feature": [0, 0, 0, -2, -2, -2, 0, -2, -2], "threshold": [0.75, 0.6500000059604645, 0.550000011920929, -2.0, -2.0, -2.0, 0.8499999940395355, -2.0, -2.0], "children_left": [1, 2, 3, -1, -1, -1, 7, -1, -1], "children_right": [6, 5, 4, -1, -1, -1, 8, -1, -1], "value": [1.3877787807814457e-17, -0.0011664776354519308, -0.0009395962559971549, -0.0007735910969757231, -0.0011056014150185867, -0.001620240394361483, 0.001749716453177931, 0.003160963411833473, 0.0003384694945223893]}, {"feature": [0, 0, 0, -2, -2, -2, 0, -2, -2], "threshold": [0.75, 0.6500000059604645, 0.550000011920929, -2.0, -2.0, -2.0, 0.8499999940395355, -2.0, -2.0], "children_left": [1, 2, 3, -1, -1, -1, 7, -1, -1], "children_right": [6, 5, 4, -1, -1, -1, 8, -1, -1], "value": [2.7755575615628915e-18, -0.0010498298719067156, -0.0008456366303974394, -0.0006962319872781952, -0.0009950412735166836, -0.001458216354925268, 0.0015747448078600804, 0.0028448670706500145, 0.0003046225450701462]}, {"feature": [0, 0, 0, -2, -2, -2, 0, -2, -2], "threshold": [0.75, 0.6500000059604645, 0.550000011920929, -2.0, -2.0, -2.0, 0.8499999940395355, -2.0, -2.0], "children_left": [1, 2, 3, -1, -1, -1, 7, -1, -1], "children_right": [6, 5, 4, -1, -1, -1, 8, -1, -1], "value": [1.6653345369377347e-17, -0.0009448468847160033, -0.0007610729673576677, -0.0006266087885503646, -0.0008955371461649708, -0.0013123947194326746, 0.0014172703270740467, 0.0025603803635849687, 0.00027416029056312463]}, {"feature": [0, 0, 0, -2, -2, -2, 0, -2, -2], "threshold": [0.75, 0.6500000059604645, 0.550000011920929, -2.0, -2.0, -2.0, 0.8499999940395355, -2.0, -2.0], "children_left": [1, 2, 3, -1, -1, -1, 7, -1, -1], "children_right": [6, 5, 4, -1, -1, -1, 8, -1, -1], "value": [1.6653345369377347e-17, -0.0008503621962443845, -0.0006849656706218732, -0.0005639479096952726, -0.0008059834315484737, -0.0011811552474894071, 0.0012755432943666184, 0.0023043423272264274, 0.0002467442615068094]}, {"feature": [0, 0, 0, -2, -2, -2, 0, -2, -2], "threshold": [0.75, 0.6500000059604645, 0.550000011920929, -2.0, -2.0, -2.0, 0.8499999940395355, -2.0, -2.0], "children_left": [1, 2, 3, -1, -1, -1, 7, -1, -1], "children_right": [6, 5, 4, -1, -1, -1, 8, -1, -1], "value": [2.4980018054066023e-17, -0.000765325976619935, -0.0006164691035596692, -0.0005075531187257454, -0.0007253850883935931, -0.0010630397227404664, 0.0011479889649299649, 0.002073908094503807, 0.0002220698353561229]}, {"feature": [0, 0, 0, -2, -2, -2, 0, -2, -2], "threshold": [0.75, 0.6500000059604645, 0.550000011920929, -2.0, -2.0, -2.0, 0.8499999940395355, -2.0, -2.0], "children_left": [1, 2, 3, -1, -1, -1, 7, -1, -1], "children_right": [6, 5, 4, -1, -1, -1, 8, -1, -1], "value": [2.7755575615628915e-18, -0.00068879337895796, -0.0005548221932036856, -0.00045679780685314864, -0.0006528465795542227, -0.0009567357504665086, 0.0010331900684369469, 0.0018665172850533818, 0.000199862851820512]}, {"feature": [0, 0, 0, -2, -2, -2, 0, -2, -2], "threshold": [0.75, 0.6500000059604645, 0.550000011920929, -2.0, -2.0, -2.0, 0.8499999940395355, -2.0, -2.0], "children_left": [1, 2, 3, -1, -1, -1, 7, -1, -1], "children_right": [6, 5, 4, -1, -1, -1, 8, -1, -1], "value": [-3.8857805861880476e-17, -0.0006199140410622084, -0.0004993399738833504, -0.0004111180261678893, -0.0005875619215988115, -0.0008610621754199244, 0.0009298710615932154, 0.001679865556547977, 0.00017987656663845386]}, {"feature": [0, 0, 0, -2, -2, -2, 0, -2, -2], "threshold": [0.75, 0.6500000059604645, 0.550000011920929, -2.0, -2.0, -2.0, 0.8499999940395355, -2.0, -2.0], "children_left": [1, 2, 3, -1, -1, -1, 7, -1, -1], "children_right": [6, 5, 4, -1, -1, -1, 8, -1, -1], "value": [-4.163336342344337e-17, -0.0005579226369560134, -0.0004494059764950098, -0.00037000622355110035, -0.0005288057294389192, -0.0007749559578780207, 0.0008368839554339161, 0.0015118790008932237, 0.00016188890997460847]}, {"feature": [0, 0, 0, -2, -2, -2, 0, -2, -2], "threshold": [0.75, 0.6500000059604645, 0.550000011920929, -2.0, -2.0, -2.0, 0.8499999940395355, -2.0, -2.0], "children_left": [1, 2, 3, -1, -1, -1, 7, -1, -1], "children_right": [6, 5, 4, -1, -1, -1, 8, -1, -1], "value": [-5.551115123125783e-18, -0.0005021303732603751, -0.0004044653788454755, -0.0003330056011959792, -0.0004759251564949718, -0.0006974603620901743, 0.0007531955598905488, 0.0013606911008039457, 0.0001457000189771518]}, {"feature": [0, 0, 0, -2, -2, -2, 0, -2, -2], "threshold": [0.75, 0.6500000059604645, 0.550000011920929, -2.0, -2.0, -2.0, 0.8499999940395355, -2.0, -2.0], "children_left": [1, 2, 3, -1, -1, -1, 7, -1, -1], "children_right": [6, 5, 4, -1, -1, -1, 8, -1, -1], "value": [-4.163336342344337e-17, -0.0004519173359343783, -0.0003640188409609335, -0.000299705041076348, -0.00042833264084551903, -0.0006277143258812679, 0.0006778760039014634, 0.0012246219907234845, 0.00013113001707944216]}, {"feature": [0, 0, 0, -2, -2, -2, 0, -2, -2], "threshold": [0.75, 0.6500000059604645, 0.550000011920929, -2.0, -2.0, -2.0, 0.8499999940395355, -2.0, -2.0], "children_left": [1, 2, 3, -1, -1, -1, 7, -1, -1], "children_right": [6, 5, 4, -1, -1, -1, 8, -1, -1], "value": [-2.4980018054066023e-17, -0.0004067256023409331, -0.00032761695686478465, -0.0002697345369686577, -0.0003854993767609116, -0.0005649428932932299, 0.0006100884035113371, 0.0011021597916511805, 0.00011801701537149378]}, {"feature": [0, 0, 0, -2, -2, -2, 0, -2, -2], "threshold": [0.75, 0.6500000059604645, 0.550000011920929, -2.0, -2.0, -2.0, 0.8499999940395355, -2.0, -2.0], "children_left": [1, 2, 3, -1, -1, -1, 7, -1, -1], "children_right": [6, 5, 4, -1, -1, -1, 8, -1, -1], "value": [-2.7755575615628914e-17, -0.00036605304210686934, -0.0002948552611783395, -0.00024276108327181412, -0.00034694943908486486, -0.0005084486039639291, 0.0005490795631602347, 0.000991943812486129, 0.00010621531383434024]}, {"feature": [0, 0, 0, -2, -2, -2, 0, -2, -2], "threshold": [0.75, 0.6500000059604645, 0.550000011920929, -2.0, -2.0, -2.0, 0.8499999940395355, -2.0, -2.0], "children_left": [1, 2, 3, -1, -1, -1, 7, -1, -1], "children_right": [6, 5, 4, -1, -1, -1, 8, -1, -1], "value": [-3.053113317719181e-17, -0.00032944773789615284, -0.00026536973506047223, -0.0002184849749445883, -0.00031225449517635617, -0.000457603743567514, 0.0004941716068441529, 0.0008927494312374051, 9.559378245090067e-05]}, {"feature": [0, 0, 0, -2, -2, -2, 0, -2, -2], "threshold": [0.75, 0.6500000059604645, 0.550000011920929, -2.0, -2.0, -2.0, 0.8499999940395355, -2.0, -2.0], "children_left": [1, 2, 3, -1, -1, -1, 7, -1, -1], "children_right": [6, 5, 4, -1, -1, -1, 8, -1, -1], "value": [-7.494005416219807e-17, -0.00029650296410658566, -0.00023883276155445277, -0.00019663647745016277, -0.00028102904565874276, -0.0004118433692108514, 0.0004447544461596911, 0.0008034744881135758, 8.603440420580644e-05]}, {"feature": [0, 0, 0, -2, -2, -2, 0, -2, -2], "threshold": [0.75, 0.6500000059604645, 0.550000011920929, -2.0, -2.0, -2.0, 0.8499999940395355, -2.0, -2.0], "children_left": [1, 2, 3, -1, -1, -1, 7, -1, -1], "children_right": [6, 5, 4, -1, -1, -1, 8, -1, -1], "value": [-8.604228440844963e-17, -0.00026685266769595667, -0.0002149494853990186, -0.0001769728297051909, -0.0002529261410928463, -0.0003706590322898329, 0.0004002790015437199, 0.0007231270393022182, 7.743096378522163e-05]}, {"feature": [0, 0, 0, -2, -2, -2, 0, -2, -2], "threshold": [0.75, 0.6500000059604645, 0.550000011920929, -2.0, -2.0, -2.0, 0.8499999940395355, -2.0, -2.0], "children_left": [1, 2, 3, -1, -1, -1, 7, -1, -1], "children_right": [6, 5, 4, -1, -1, -1, 8, -1, -1], "value": [-6.38378239159465e-17, -0.00024016740092636102, -0.00019345453685909453, -0.0001592755467346718, -0.00022763352698351724, -0.000333593129060894, 0.00036025110138938193, 0.000650814335372063, 6.968786740670085e-05]}, {"feature": [0, 0, 0, -2, -2, -2, 0, -2, -2], "threshold": [0.75, 0.6500000059604645, 0.550000011920929, -2.0, -2.0, -2.0, 0.8499999940395355, -2.0, -2.0], "children_left": [1, 2, 3, -1, -1, -1, 7, -1, -1], "children_right": [6, 5, 4, -1, -1, -1, 8, -1, -1], "value": [-6.38378239159465e-17, -0.0002161506608337286, -0.00017410908317316842, -0.00014334799206117133, -0.00020487017428516552, -0.000300233816154849, 0.00032422599125043333, 0.0005857329018348345, 6.271908066603216e-05]}, {"feature": [0, 0, 0, -2, -2, -2, 0, -2, -2], "threshold": [0.75, 0.6500000059604645, 0.550000011920929, -2.0, -2.0, -2.0, 0.8499999940395355, -2.0, -2.0], "children_left": [1, 2, 3, -1, -1, -1, 7, -1, -1], "children_right": [6, 5, 4, -1, -1, -1, 8, -1, -1], "value": [-4.9960036108132046e-17, -0.00019453559475035576, -0.00015669817485586268, -0.0001290131928550764, -0.00018438315685664897, -0.0002702104345393419, 0.00029180339212540873, 0.0005271596116513955, 5.6447172599422e-05]}, {"feature": [0, 0, 0, -2, -2, -2, 0, -2, -2], "threshold": [0.75, 0.6500000059604645, 0.550000011920929, -2.0, -2.0, -2.0, 0.8499999940395355, -2.0, -2.0], "children_left": [1, 2, 3, -1, -1, -1, 7, -1, -1], "children_right": [6, 5, 4, -1, -1, -1, 8, -1, -1], "value": [-4.9960036108132046e-17, -0.00017508203527531277, -0.000141028357370232, -0.00011611187356952435, -0.00016594484117093966, -0.00024318939108547433, 0.00026262305291284427, 0.0004744436504862115, 5.0802455339477026e-05]}, {"feature": [0, 0, 0, -2, -2, -2, 0, -2, -2], "threshold": [0.75, 0.6500000059604645, 0.550000011920929, -2.0, -2.0, -2.0, 0.8499999940395355, -2.0, -2.0], "children_left": [1, 2, 3, -1, -1, -1, 7, -1, -1], "children_right": [6, 5, 4, -1, -1, -1, 8, -1, -1], "value": [-7.771561172376095e-17, -0.00015757383174782222, -0.00012692552163323656, -0.00010450068621259412, -0.000149350357053879, -0.0002188704519769935, 0.00023636074762153902, 0.00042699928543754595, 4.57222098055321e-05]}, {"feature": [0, 0, 0, -2, -2, -2, 0, -2, -2], "threshold": [0.75, 0.6500000059604645, 0.550000011920929, -2.0, -2.0, -2.0, 0.8499999940395355, -2.0, -2.0], "children_left": [1, 2, 3, -1, -1, -1, 7, -1, -1], "children_right": [6, 5, 4, -1, -1, -1, 8, -1, -1], "value": [-4.4408920985006264e-17, -0.00014181644857302889, -0.00011423296946994066, -9.405061759137912e-05, -0.0001344153213485022, -0.00019698340677920534, 0.0002127246728594323, 0.0003842993568938802, 4.114998882498444e-05]}, {"feature": [0, 0, 0, -2, -2, -2, 0, -2, -2], "threshold": [0.75, 0.6500000059604645, 0.550000011920929, -2.0, -2.0, -2.0, 0.8499999940395355, -2.0, -2.0], "children_left": [1, 2, 3, -1, -1, -1, 7, -1, -1], "children_right": [6, 5, 4, -1, -1, -1, 8, -1, -1], "value": [-3.8857805861880476e-17, -0.0001276348037156927, -0.00010280967252290774, -8.46455558322079e-05, -0.00012097378921360757, -0.0001772850661012626, 0.0001914522055734419, 0.00034586942120440334, 3.7034989942480445e-05]}, {"feature": [0, 0, 0, -2, -2, -2, 0, -2, -2], "threshold": [0.75, 0.6500000059604645, 0.550000011920929, -2.0, -2.0, -2.0, 0.8499999940395355, -2.0, -2.0], "children_left": [1, 2, 3, -1, -1, -1, 7, -1, -1], "children_right": [6, 5, 4, -1, -1, -1, 8, -1, -1], "value": [-1.3877787807814457e-17, -0.00011487132334412713, -9.252870527060031e-05, -7.6181000248976e-05, -0.00010887641029222461, -0.00015955655949118075, 0.000172306985016156, 0.000311282479084074, 3.333149094823795e-05]}, {"feature": [0, 0, 0, -2, -2, -2, 0, -2, -2], "threshold": [0.75, 0.6500000059604645, 0.550000011920929, -2.0, -2.0, -2.0, 0.8499999940395355, -2.0, -2.0], "children_left": [1, 2, 3, -1, -1, -1, 7, -1, -1], "children_right": [6, 5, 4, -1, -1, -1, 8, -1, -1], "value": [-1.1102230246251566e-17, -0.0001033841910097107, -8.327583474354583e-05, -6.85629002240562e-05, -9.798876926303546e-05, -0.00014360090354204047, 0.0001550762865145383, 0.0002801542311756666, 2.9998341853409993e-05]}, {"feature": [0, 0, 0, -2, -2, -2, 0, -2, -2], "threshold": [0.75, 0.6500000059604645, 0.550000011920929, -2.0, -2.0, -2.0, 0.8499999940395355, -2.0, -2.0], "children_left": [1, 2, 3, -1, -1, -1, 7, -1, -1], "children_right": [6, 5, 4, -1, -1, -1, 8, -1, -1], "value": [-2.2204460492503132e-17, -9.304577190875445e-05, -7.494825126919125e-05, -6.170661020166168e-05, -8.818989233672081e-05, -0.00012924081318788083, 0.00013956865786307615, 0.00025213880805807776, 2.6998507668074545e-05]}, {"feature": [0, 0, 0, -2, -2, -2, 0, -2, -2], "threshold": [0.75, 0.6500000059604645, 0.550000011920929, -2.0, -2.0, -2.0, 0.8499999940395355, -2.0, -2.0], "children_left": [1, 2, 3, -1, -1, -1, 7, -1, -1], "children_right": [6, 5, 4, -1, -1, -1, 8, -1, -1], "value": [-6.106226635438361e-17, -8.374119471791601e-05, -6.745342614228322e-05, -5.5535949181506616e-05, -7.937090310305983e-05, -0.00011631673186918157, 0.00012561179207672135, 0.00022692492725218116, 2.429865690126154e-05]}, {"feature": [0, 0, 0, -2, -2, -2, 0, -2, -2], "threshold": [0.75, 0.6500000059604645, 0.550000011920929, -2.0, -2.0, -2.0, 0.8499999940395355, -2.0, -2.0], "children_left": [1, 2, 3, -1, -1, -1, 7, -1, -1], "children_right": [6, 5, 4, -1, -1, -1, 8, -1, -1], "value": [-4.4408920985006264e-17, -7.53670752461355e-05, -6.070808352803825e-05, -4.998235426334485e-05, -7.143381279273164e-05, -0.00010468505868233002, 0.00011305061286909224, 0.00020423243452705186, 2.186879121113261e-05]}, {"feature": [0, 0, 0, -2, -2, -2, 0, -2, -2], "threshold": [0.75, 0.6500000059604645, 0.550000011920929, -2.0, -2.0, -2.0, 0.8499999940395355, -2.0, -2.0], "children_left": [1, 2, 3, -1, -1, -1, 7, -1, -1], "children_right": [6, 5, 4, -1, -1, -1, 8, -1, -1], "value": [-4.163336342344337e-17, -6.783036772154787e-05, -5.4637275175239974e-05, -4.498411883702147e-05, -6.429043151345848e-05, -9.421655281416363e-05, 0.00010174555158221771, 0.0001838091910744133, 1.9681912090022124e-05]}, {"feature": [0, 0, 0, -2, -2, -2, 0, -2, -2], "threshold": [0.75, 0.6500000059604645, 0.550000011920929, -2.0, -2.0, -2.0, 0.8499999940395355, -2.0, -2.0], "children_left": [1, 2, 3, -1, -1, -1, 7, -1, -1], "children_right": [6, 5, 4, -1, -1, -1, 8, -1, -1], "value": [-3.8857805861880476e-17, -6.104733094939678e-05, -4.917354765776594e-05, -4.048570695336373e-05, -5.786138836216814e-05, -8.479489753265845e-05, 9.157099642399802e-05, 0.00016542827196697196, 1.7713720881024075e-05]}, {"feature": [0, 0, 0, -2, -2, -2, 0, -2, -2], "threshold": [0.75, 0.6500000059604645, 0.550000011920929, -2.0, -2.0, -2.0, 0.8499999940395355, -2.0, -2.0], "children_left": [1, 2, 3, -1, -1, -1, 7, -1, -1], "children_right": [6, 5, 4, -1, -1, -1, 8, -1, -1], "value": [-5.828670879282072e-17, -5.49425978544719e-05, -4.4256192892000445e-05, -3.6437136258005154e-05, -5.207524952599574e-05, -7.631540777941481e-05, 8.241389678156213e-05, 0.00014888544477020815, 1.5942348792916117e-05]}, {"feature": [0, 0, 0, -2, -2, -2, 0, -2, -2], "threshold": [0.75, 0.6500000059604645, 0.550000011920929, -2.0, -2.0, -2.0, 0.8499999940395355, -2.0, -2.0], "children_left": [1, 2, 3, -1, -1, -1, 7, -1, -1], "children_right": [6, 5, 4, -1, -1, -1, 8, -1, -1], "value": [-4.9960036108132046e-17, -4.9448338069006205e-05, -3.983057360279485e-05, -3.2793422632182434e-05, -4.6867724573407266e-05, -6.868386700142892e-05, 7.417250710338441e-05, 0.00013399690029314293, 1.4348113913625893e-05]}, {"feature": [0, 0, 0, -2, -2, -2, 0, -2, -2], "threshold": [0.75, 0.6500000059604645, 0.550000011920929, -2.0, -2.0, -2.0, 0.8499999940395355, -2.0, -2.0], "children_left": [1, 2, 3, -1, -1, -1, 7, -1, -1], "children_right": [6, 5, 4, -1, -1, -1, 8, -1, -1], "value": [-7.216449660063518e-17, -4.450350426214259e-05, -3.584751624252647e-05, -2.9514080368997497e-05, -4.218095211605544e-05, -6.181548030137485e-05, 6.675525639303348e-05, 0.00012059721026380643, 1.2913302522260528e-05]}, {"feature": [0, 0, 0, -2, -2, -2, 0, -2, -2], "threshold": [0.75, 0.6500000059604645, 0.550000011920929, -2.0, -2.0, -2.0, 0.8499999940395355, -2.0, -2.0], "children_left": [1, 2, 3, -1, -1, -1, 7, -1, -1], "children_right": [6, 5, 4, -1, -1, -1, 8, -1, -1], "value": [-1.0547118733938987e-16, -4.005315383596534e-05, -3.226276461831823e-05, -2.6562672332142157e-05, -3.79628569044943e-05, -5.563393227125957e-05, 6.0079730753684335e-05, 0.00010853748923733697, 1.16219722700317e-05]}, {"feature": [0, 0, 0, -2, -2, -2, 0, -2, -2], "threshold": [0.75, 0.6500000059604645, 0.550000011920929, -2.0, -2.0, -2.0, 0.8499999940395355, -2.0, -2.0], "children_left": [1, 2, 3, -1, -1, -1, 7, -1, -1], "children_right": [6, 5, 4, -1, -1, -1, 8, -1, -1], "value": [-1.0269562977782698e-16, -3.60478384523466e-05, -2.903648815649751e-05, -2.390640509897235e-05, -3.416657121402267e-05, -5.007053904404479e-05, 5.4071757678263166e-05, 9.768374031349225e-05, 1.045977504303408e-05]}, {"feature": [0, 0, 0, -2, -2, -2, 0, -2, -2], "threshold": [0.75, 0.6500000059604645, 0.550000011920929, -2.0, -2.0, -2.0, 0.8499999940395355, -2.0, -2.0], "children_left": [1, 2, 3, -1, -1, -1, 7, -1, -1], "children_right": [6, 5, 4, -1, -1, -1, 8, -1, -1], "value": [-1.0824674490095276e-16, -3.2443054607108245e-05, -2.6132839340831104e-05, -2.1515764589086217e-05, -3.074991409257599e-05, -4.506348513966252e-05, 4.8664581910391747e-05, 8.791536628205421e-05, 9.413797538729285e-06]}, {"feature": [0, 0, 0, -2, -2, -2, 0, -2, -2], "threshold": [0.75, 0.6500000059604645, 0.550000011920929, -2.0, -2.0, -2.0, 0.8499999940395355, -2.0, -2.0], "children_left": [1, 2, 3, -1, -1, -1, 7, -1, -1], "children_right": [6, 5, 4, -1, -1, -1, 8, -1, -1], "value": [-1.1934897514720432e-16, -2.9198749146419622e-05, -2.3519555406747994e-05, -1.93641881301998e-05, -2.7674922683296188e-05, -4.055713662576288e-05, 4.379812371933106e-05, 7.912382965380438e-05, 8.472417784857744e-06]}, {"feature": [0, 0, 0, -2, -2, -2, 0, -2, -2], "threshold": [0.75, 0.6500000059604645, 0.550000011920929, -2.0, -2.0, -2.0, 0.8499999940395355, -2.0, -2.0], "children_left": [1, 2, 3, -1, -1, -1, 7, -1, -1], "children_right": [6, 5, 4, -1, -1, -1, 8, -1, -1], "value": [-1.582067810090848e-16, -2.627887423182577e-05, -2.1167599866089848e-05, -1.742776931723533e-05, -2.4907430414944365e-05, -3.6501422963297614e-05, 3.941831134734314e-05, 7.121144668831292e-05, 7.6251760063733576e-06]}, {"feature": [0, 0, 0, -2, -2, -2, 0, -2, -2], "threshold": [0.75, 0.6500000059604645, 0.550000011920929, -2.0, -2.0, -2.0, 0.8499999940395355, -2.0, -2.0], "children_left": [1, 2, 3, -1, -1, -1, 7, -1, -1], "children_right": [6, 5, 4, -1, -1, -1, 8, -1, -1], "value": [-1.1657341758564144e-16, -2.3650986808602486e-05, -1.905083987946421e-05, -1.568499238546739e-05, -2.241668737346103e-05, -3.2851280666879035e-05, 3.5476480212612294e-05, 6.409030201948163e-05, 6.862658405742961e-06]}, {"feature": [0, 0, 0, -2, -2, -2, 0, -2, -2], "threshold": [0.75, 0.6500000059604645, 0.550000011920929, -2.0, -2.0, -2.0, 0.8499999940395355, -2.0, -2.0], "children_left": [1, 2, 3, -1, -1, -1, 7, -1, -1], "children_right": [6, 5, 4, -1, -1, -1, 8, -1, -1], "value": [-8.881784197001253e-17, -2.1285888127738534e-05, -1.7145755891512238e-05, -1.4116493146865139e-05, -2.0175018636159336e-05, -2.956615260019113e-05, 3.192883219138576e-05, 5.768127181760008e-05, 6.17639256517144e-06]}]}, {"init": 0.13262467682361603, "trees": [{"feature": [0, 0, 0, -2, -2, -2, 0, -2, -2], "threshold": [0.75, 0.6500000059604645, 0.550000011920929, -2.0, -2.0, -2.0, 0.8499999940395355, -2.0, -2.0], "children_left": [1, 2, 3, -1, -1, -1, 7, -1, -1], "children_right": [6, 5, 4, -1, -1, -1, 8, -1, -1], "value": [2.2204460492503132e-17, 0.7263724098602932, 0.588572958111763, 0.535017678141594, 0.6421282380819321, 1.0019713133573531, -1.0895586147904397, -1.924880674481392, -0.2542365550994873]}, {"feature": [0, 0, 0, -2, -2, -2, 0, -2, -2], "threshold": [0.75, 0.6500000059604645, 0.550000011920929, -2.0, -2.0, -2.0, 0.8499999940395355, -2.0, -2.0], "children_left": [1, 2, 3, -1, -1, -1, 7, -1, -1], "children_right": [6, 5, 4, -1, -1, -1, 8, -1, -1], "value": [-3.3306690738754695e-17, 0.6537351688742638, 0.5297156623005866, 0.4815159103274345, 0.5779154142737388, 0.9017741820216179, -0.9806027533113957, -1.7323926070332527, -0.2288128995895386]}, {"feature": [0, 0, 0, -2, -2, -2, 0, -2, -2], "threshold": [0.75, 0.6500000059604645, 0.550000011920929, -2.0, -2.0, -2.0, 0.8499999940395355, -2.0, -2.0], "children_left": [1, 2, 3, -1, -1, -1, 7, -1, -1], "children_right": [6, 5, 4, -1, -1, -1, 8, -1, -1], "value": [1.1102230246251566e-17, 0.5883616519868374, 0.47674409607052803, 0.43336431929469105, 0.520123872846365, 0.8115967638194561, -0.8825424779802561, -1.5591533463299274, -0.2059316096305847]}, {"feature": [0, 0, 0, -2, -2, -2, 0, -2, -2], "threshold": [0.75, 0.6500000059604645, 0.550000011920929, -2.0, -2.0, -2.0, 0.8499999940395355, -2.0, -2.0], "children_left": [1, 2, 3, -1, -1, -1, 7, -1, -1], "children_right": [6, 5, 4, -1, -1, -1, 8, -1, -1], "value": [4.4408920985006264e-17, 0.5295254867881537, 0.4290696864634752, 0.3900278873652219, 0.46811148556172844, 0.7304370874375106, -0.7942882301822304, -1.4032380116969345, -0.18533844866752625]}, {"feature": [0, 0, 0, -2, -2, -2, 0, -2, -2], "threshold": [0.75, 0.6500000059604645, 0.550000011920929, -2.0, -2.0, -2.0, 0.8499999940395355, -2.0, -2.0], "children_left": [1, 2, 3, -1, -1, -1, 7, -1, -1], "children_right": [6, 5, 4, -1, -1, -1, 8, -1, -1], "value": [-5.551115123125783e-17, 0.4765729381093382, 0.38616271781712763, 0.35102509862869974, 0.4213003370055556, 0.6573933786937595, -0.7148594071640074, -1.2629142105272413, -0.1668046038007736]}, {"feature": [0, 0, 0, -2, -2, -2, 0, -2, -2], "threshold": [0.75, 0.6500000059604645, 0.550000011920929, -2.0, -2.0, -2.0, 0.8499999940395355, -2.0, -2.0], "children_left": [1, 2, 3, -1, -1, -1, 7, -1, -1], "children_right": [6, 5, 4, -1, -1, -1, 8, -1, -1], "value": [6.106226635438361e-17, 0.4289156442984045, 0.3475464460354149, 0.3159225887658298, 0.379170303305, 0.5916540408243836, -0.6433734664476066, -1.136622789474517, -0.15012414342069627]}, {"feature": [0, 0, 0, -2, -2, -2, 0, -2, -2], "threshold": [0.75, 0.6500000059604645, 0.550000011920929, -2.0, -2.0, -2.0, 0.8499999940395355, -2.0, -2.0], "children_left": [1, 2, 3, -1, -1, -1, 7, -1, -1], "children_right": [6, 5, 4, -1, -1, -1, 8, -1, -1], "value": [3.3306690738754695e-17, 0.3860240798685641, 0.31279180143187346, 0.28433032988924684, 0.34125327297450003, 0.5324886367419452, -0.579036119802846, -1.0229605105270654, -0.13511172907862662]}, {"feature": [0, 0, 0, -2, -2, -2, 0, -2, -2], "threshold": [0.75, 0.6500000059604645, 0.550000011920929, -2.0, -2.0, -2.0, 0.8499999940395355, -2.0, -2.0], "children_left": [1, 2, 3, -1, -1, -1, 7, -1, -1], "children_right": [6, 5, 4, -1, -1, -1, 8, -1, -1], "value": [5.828670879282072e-17, 0.34742167188170764, 0.2815126212886861, 0.25589729690032215, 0.30712794567705004, 0.4792397730677507, -0.5211325078225614, -0.9206644594743587, -0.12160055617076397]}, {"feature": [0, 0, 0, -2, -2, -2, 0, -2, -2], "threshold": [0.75, 0.6500000059604645, 0.550000011920929, -2.0, -2.0, -2.0, 0.8499999940395355, -2.0, -2.0], "children_left": [1, 2, 3, -1, -1, -1, 7, -1, -1], "children_right": [6, 5, 4, -1, -1, -1, 8, -1, -1], "value": [2.4980018054066023e-17, 0.31267950469353684, 0.2533613591598175, 0.23030756721028994, 0.27641515110934506, 0.43131579576097556, -0.4690192570403052, -0.8285980135269229, -0.10944050055368758]}, {"feature": [0, 0, 0, -2, -2, -2, 0, -2, -2], "threshold": [0.75, 0.6500000059604645, 0.550000011920929, -2.0, -2.0, -2.0, 0.8499999940395355, -2.0, -2.0], "children_left": [1, 2, 3, -1, -1, -1, 7, -1, -1], "children_right": [6, 5, 4, -1, -1, -1, 8, -1, -1], "value": [-5.551115123125783e-18, 0.2814115542241831, 0.22802522324383573, 0.20727681048926094, 0.24877363599841051, 0.388184216184878, -0.4221173313362747, -0.7457382121742306, -0.09849645049831882]}, {"feature": [0, 0, 0, -2, -2, -2, 0, -2, -2], 